{"learner":{"attributes":{"scikit_learn":"{\"_estimator_type\": \"classifier\"}"},"feature_names":[],"feature_types":[],"gradient_booster":{"model":{"cats":{"enc":[],"feature_segments":[],"sorted_idx":[]},"gbtree_model_param":{"num_parallel_tree":"1","num_trees":"200"},"iteration_indptr":[0,1,2,3,4,5,6,7,8,9,10,11,12,13,14,15,16,17,18,19,20,21,22,23,24,25,26,27,28,29,30,31,32,33,34,35,36,37,38,39,40,41,42,43,44,45,46,47,48,49,50,51,52,53,54,55,56,57,58,59,60,61,62,63,64,65,66,67,68,69,70,71,72,73,74,75,76,77,78,79,80,81,82,83,84,85,86,87,88,89,90,91,92,93,94,95,96,97,98,99,100,101,102,103,104,105,106,107,108,109,110,111,112,113,114,115,116,117,118,119,120,121,122,123,124,125,126,127,128,129,130,131,132,133,134,135,136,137,138,139,140,141,142,143,144,145,146,147,148,149,150,151,152,153,154,155,156,157,158,159,160,161,162,163,164,165,166,167,168,169,170,171,172,173,174,175,176,177,178,179,180,181,182,183,184,185,186,187,188,189,190,191,192,193,194,195,196,197,198,199,200],"tree_info":[0,0,0,0,0,0,0,0,0,0,0,0,0,0,0,0,0,0,0,0,0,0,0,0,0,0,0,0,0,0,0,0,0,0,0,0,0,0,0,0,0,0,0,0,0,0,0,0,0,0,0,0,0,0,0,0,0,0,0,0,0,0,0,0,0,0,0,0,0,0,0,0,0,0,0,0,0,0,0,0,0,0,0,0,0,0,0,0,0,0,0,0,0,0,0,0,0,0,0,0,0,0,0,0,0,0,0,0,0,0,0,0,0,0,0,0,0,0,0,0,0,0,0,0,0,0,0,0,0,0,0,0,0,0,0,0,0,0,0,0,0,0,0,0,0,0,0,0,0,0,0,0,0,0,0,0,0,0,0,0,0,0,0,0,0,0,0,0,0,0,0,0,0,0,0,0,0,0,0,0,0,0,0,0,0,0,0,0,0,0,0,0,0,0,0,0,0,0,0,0],"trees":[{"base_weights":[1.6509882E-3,-5.421995E-1,1.4814459E0,-7.4012166E-1,7.374707E-1,8.9603186E-1,2.949719E0,9.852861E-1,-8.9617515E-1,2.4998214E0,2.0799546E-1,2.4672546E0,2.4542756E-1,3.0238414E0,7.185383E-1,2.3448458E-1,5.123986E-2,9.126623E-2,-9.5497936E-2,2.1861233E-2,2.6660332E-1,-3.4735423E-2,8.554148E-2,2.9030183E-1,1.3080633E-1,1.5052405E-1,-1.0965822E-2,2.2411464E-1,3.3109266E-1,-7.976571E-2,1.5297024E-1],"categories":[],"categories_nodes":[],"categories_segments":[],"categories_sizes":[],"default_left":[0,0,0,0,0,0,0,0,0,0,0,0,0,0,0,0,0,0,0,0,0,0,0,0,0,0,0,0,0,0,0],"id":0,"left_children":[1,3,5,7,9,11,13,15,17,19,21,23,25,27,29,-1,-1,-1,-1,-1,-1,-1,-1,-1,-1,-1,-1,-1,-1,-1,-1],"loss_changes":[1.1962208E3,2.7583606E2,3.4071326E2,2.5447589E2,1.3580258E2,2.9280862E2,1.6586792E1,4.932814E1,9.279785E1,1.2180145E1,4.108105E1,3.8602844E1,9.146335E1,1.7178406E1,7.3190255E0,0E0,0E0,0E0,0E0,0E0,0E0,0E0,0E0,0E0,0E0,0E0,0E0,0E0,0E0,0E0,0E0],"parents":[2147483647,0,0,1,1,2,2,3,3,4,4,5,5,6,6,7,7,8,8,9,9,10,10,11,11,12,12,13,13,14,14],"right_children":[2,4,6,8,10,12,14,16,18,20,22,24,26,28,30,-1,-1,-1,-1,-1,-1,-1,-1,-1,-1,-1,-1,-1,-1,-1,-1],"split_conditions":[2.9729154E-2,1.273877E-2,2.009346E-2,4.6166442E-2,1.711998E-1,1.0790258E-2,3.8068706E-1,1.8686991E-2,1.8422548E-2,9.37581E-2,7.041205E-2,6.434996E-2,2.5665803E-2,6.5648586E-2,2.569711E-1,2.3448458E-1,5.123986E-2,9.126623E-2,-9.5497936E-2,2.1861233E-2,2.6660332E-1,-3.4735423E-2,8.554148E-2,2.9030183E-1,1.3080633E-1,1.5052405E-1,-1.0965822E-2,2.2411464E-1,3.3109266E-1,-7.976571E-2,1.5297024E-1],"split_indices":[7,62,23,34,3,50,25,6,6,38,18,34,6,46,52,0,0,0,0,0,0,0,0,0,0,0,0,0,0,0,0],"split_type":[0,0,0,0,0,0,0,0,0,0,0,0,0,0,0,0,0,0,0,0,0,0,0,0,0,0,0,0,0,0,0],"sum_hessian":[1.4843835E3,1.0859219E3,3.9846167E2,9.4082874E2,1.450931E2,2.8602936E2,1.12432304E2,7.7594124E1,8.632346E2,3.2660793E1,1.12432304E2,8.2938614E1,2.0309074E2,1.0847342E2,3.9588838E0,1.9002644E1,5.859148E1,2.6722466E1,8.3651215E2,2.3753304E0,3.0285461E1,6.0768867E1,5.1663433E1,5.9185314E1,2.3753304E1,4.394361E1,1.5914713E2,3.1473127E1,7.700029E1,1.3856094E0,2.5732746E0],"tree_param":{"num_deleted":"0","num_feature":"64","num_nodes":"31","size_leaf_vector":"1"}},{"base_weights":[1.49526E-2,-4.8780224E-1,1.3303322E0,1.3086776E0,-6.0949534E-1,5.483168E-1,1.9508194E0,1.5685884E0,-1.4340928E-1,-8.92014E-1,-8.3206326E-2,2.1841297E0,-1.0996057E-1,8.82988E-1,2.2253141E0,2.1695724E-1,9.884622E-2,-6.875706E-2,1.3018505E-1,1.11750625E-1,-9.385522E-2,1.4240004E-1,-3.2579597E-2,2.7579954E-1,1.4254843E-1,1.6120097E-1,-3.3506494E-2,2.647558E-1,5.305394E-2,2.7591103E-1,1.7943174E-1],"categories":[],"categories_nodes":[],"categories_segments":[],"categories_sizes":[],"default_left":[0,0,0,0,0,0,0,0,0,0,0,0,0,0,0,0,0,0,0,0,0,0,0,0,0,0,0,0,0,0,0],"id":1,"left_children":[1,3,5,7,9,11,13,15,17,19,21,23,25,27,29,-1,-1,-1,-1,-1,-1,-1,-1,-1,-1,-1,-1,-1,-1,-1,-1],"loss_changes":[9.929132E2,2.382771E2,2.0038574E2,2.6354439E1,1.512941E2,1.9952725E2,6.577521E1,1.8358002E1,9.881941E0,6.2989563E1,1.3088725E2,1.9209183E1,5.2061966E1,2.9017712E1,3.7194214E1,0E0,0E0,0E0,0E0,0E0,0E0,0E0,0E0,0E0,0E0,0E0,0E0,0E0,0E0,0E0,0E0],"parents":[2147483647,0,0,1,1,2,2,3,3,4,4,5,5,6,6,7,7,8,8,9,9,10,10,11,11,12,12,13,13,14,14],"right_children":[2,4,6,8,10,12,14,16,18,20,22,24,26,28,30,-1,-1,-1,-1,-1,-1,-1,-1,-1,-1,-1,-1,-1,-1,-1,-1],"split_conditions":[3.0084033E-2,1.9261533E-2,9.536358E-3,1.1096933E-1,6.1807808E-2,2.3003994E-2,1.4363021E-2,1.6195083E-2,8.198967E-2,2.5492027E-2,8.038669E-2,7.89209E-2,1.4240247E-1,2.426039E-2,1.3525454E-2,2.1695724E-1,9.884622E-2,-6.875706E-2,1.3018505E-1,1.11750625E-1,-9.385522E-2,1.4240004E-1,-3.2579597E-2,2.7579954E-1,1.4254843E-1,1.6120097E-1,-3.3506494E-2,2.647558E-1,5.305394E-2,2.7591103E-1,1.7943174E-1],"split_indices":[7,6,23,5,18,56,43,6,30,41,5,36,0,56,50,0,0,0,0,0,0,0,0,0,0,0,0,0,0,0,0],"split_type":[0,0,0,0,0,0,0,0,0,0,0,0,0,0,0,0,0,0,0,0,0,0,0,0,0,0,0,0,0,0,0],"sum_hessian":[1.4994447E3,1.0852699E3,4.1417484E2,6.823311E1,1.0170368E3,1.8407025E2,2.301046E2,5.780609E1,1.0427015E1,6.6133093E2,3.5570584E2,5.215288E1,1.3191737E2,4.79168E1,1.8218779E2,2.7046907E1,3.0759184E1,7.955799E0,2.471216E0,1.4448088E1,6.468829E2,4.863945E1,3.070664E2,2.8192038E1,2.3960844E1,1.4538874E1,1.17378494E2,6.8932323E0,4.1023567E1,7.897469E1,1.032131E2],"tree_param":{"num_deleted":"0","num_feature":"64","num_nodes":"31","size_leaf_vector":"1"}},{"base_weights":[1.00036925E-2,-3.2909423E-1,1.403825E0,9.568761E-1,-6.8562067E-1,6.607257E-1,1.9786154E0,5.790917E-1,2.1194382E0,1.6789731E-1,-8.239836E-1,1.8691872E0,2.8489418E-2,2.1779327E0,1.097922E0,1.5712477E-1,5.84682E-3,2.4909218E-1,1.2680331E-1,-5.4088283E-2,8.5926555E-2,-1.0387464E-1,-3.710025E-2,2.1852492E-1,4.2086E-2,-2.6317326E-2,2.2449382E-1,3.623251E-2,2.2677894E-1,-4.3014627E-2,1.9643016E-1],"categories":[],"categories_nodes":[],"categories_segments":[],"categories_sizes":[],"default_left":[0,0,0,0,0,0,0,0,0,0,0,0,0,0,0,0,0,0,0,0,0,0,0,0,0,0,0,0,0,0,0],"id":2,"left_children":[1,3,5,7,9,11,13,15,17,19,21,23,25,27,29,-1,-1,-1,-1,-1,-1,-1,-1,-1,-1,-1,-1,-1,-1,-1,-1],"loss_changes":[6.985166E2,5.456663E2,1.2221503E2,1.12281906E2,1.1011807E2,9.7461624E1,2.6144531E1,1.01375275E2,1.677063E1,6.453109E1,7.759125E1,1.9140778E1,5.5415848E1,2.063916E1,4.3232685E1,0E0,0E0,0E0,0E0,0E0,0E0,0E0,0E0,0E0,0E0,0E0,0E0,0E0,0E0,0E0,0E0],"parents":[2147483647,0,0,1,1,2,2,3,3,4,4,5,5,6,6,7,7,8,8,9,9,10,10,11,11,12,12,13,13,14,14],"right_children":[2,4,6,8,10,12,14,16,18,20,22,24,26,28,30,-1,-1,-1,-1,-1,-1,-1,-1,-1,-1,-1,-1,-1,-1,-1,-1],"split_conditions":[1.5234377E-2,5.4340836E-2,1.3425384E-2,1.5301027E-2,2.5276603E-2,1.1392876E-1,1.4540653E-1,2.0740906E-2,8.650187E-2,2.5651108E-2,8.52215E-3,8.336918E-2,2.0101322E-2,7.430409E-3,2.2479397E-1,1.5712477E-1,5.84682E-3,2.4909218E-1,1.2680331E-1,-5.4088283E-2,8.5926555E-2,-1.0387464E-1,-3.710025E-2,2.1852492E-1,4.2086E-2,-2.6317326E-2,2.2449382E-1,3.623251E-2,2.2677894E-1,-4.3014627E-2,1.9643016E-1],"split_indices":[62,34,23,28,6,5,34,6,19,15,62,34,12,43,52,0,0,0,0,0,0,0,0,0,0,0,0,0,0,0,0],"split_type":[0,0,0,0,0,0,0,0,0,0,0,0,0,0,0,0,0,0,0,0,0,0,0,0,0,0,0,0,0,0,0],"sum_hessian":[1.4759207E3,1.1877267E3,2.8819397E2,2.5744684E2,9.3027985E2,1.26631714E2,1.6156227E2,1.954363E2,6.2010555E1,1.2974013E2,8.0053973E2,4.2823006E1,8.380871E1,1.3054463E2,3.1017637E1,6.656496E1,1.2887134E2,4.183258E1,2.0177973E1,6.417083E1,6.55693E1,5.421894E2,2.5835037E2,3.4734287E1,8.0887165E0,7.484157E1,8.967144E0,6.393448E0,1.2415118E2,1.1405252E1,1.9612385E1],"tree_param":{"num_deleted":"0","num_feature":"64","num_nodes":"31","size_leaf_vector":"1"}},{"base_weights":[4.6813497E-3,-5.424391E-1,8.676138E-1,-7.8614724E-1,1.9852772E-1,5.0837445E-1,1.8318177E0,4.8756763E-1,-9.1656184E-1,1.2286034E0,-2.6164556E-1,1.878277E0,9.8719664E-2,9.367547E-1,1.9455749E0,2.036947E-1,2.0569937E-2,-2.8510198E-2,-9.990859E-2,2.4273539E-1,8.524977E-2,-4.7971793E-2,1.1026379E-1,1.3687454E-1,2.387973E-1,1.14137344E-1,-1.9131636E-2,-6.595077E-2,1.2788288E-1,1.9957286E-1,6.7700915E-2],"categories":[],"categories_nodes":[],"categories_segments":[],"categories_sizes":[],"default_left":[0,0,0,0,0,0,0,0,0,0,0,0,0,0,0,0,0,0,0,0,0,0,0,0,0,0,0,0,0,0,0],"id":3,"left_children":[1,3,5,7,9,11,13,15,17,19,21,23,25,27,29,-1,-1,-1,-1,-1,-1,-1,-1,-1,-1,-1,-1,-1,-1,-1,-1],"loss_changes":[6.928057E2,1.6232382E2,1.9628854E2,1.1273392E2,1.0605691E2,2.3338383E2,1.3874817E1,2.7285233E1,3.1687012E1,2.9064835E1,4.664601E1,2.15997E1,9.742727E1,1.1389057E1,7.2924805E0,0E0,0E0,0E0,0E0,0E0,0E0,0E0,0E0,0E0,0E0,0E0,0E0,0E0,0E0,0E0,0E0],"parents":[2147483647,0,0,1,1,2,2,3,3,4,4,5,5,6,6,7,7,8,8,9,9,10,10,11,11,12,12,13,13,14,14],"right_children":[2,4,6,8,10,12,14,16,18,20,22,24,26,28,30,-1,-1,-1,-1,-1,-1,-1,-1,-1,-1,-1,-1,-1,-1,-1,-1],"split_conditions":[2.7244182E-2,9.6169645E-3,2.009346E-2,4.6166442E-2,9.686584E-2,2.071338E-2,1.336418E-2,5.2641034E-2,2.4148148E-2,4.32114E-3,7.59957E-2,2.7389375E-2,7.4645795E-2,2.8919308E-2,2.2002332E-1,2.036947E-1,2.0569937E-2,-2.8510198E-2,-9.990859E-2,2.4273539E-1,8.524977E-2,-4.7971793E-2,1.1026379E-1,1.3687454E-1,2.387973E-1,1.14137344E-1,-1.9131636E-2,-6.595077E-2,1.2788288E-1,1.9957286E-1,6.7700915E-2],"split_indices":[7,62,23,34,21,56,43,36,6,50,46,20,36,20,34,0,0,0,0,0,0,0,0,0,0,0,0,0,0,0,0],"split_type":[0,0,0,0,0,0,0,0,0,0,0,0,0,0,0,0,0,0,0,0,0,0,0,0,0,0,0,0,0,0,0],"sum_hessian":[1.4654142E3,8.9704004E2,5.683741E2,6.7497577E2,2.220643E2,4.1520566E2,1.5316846E2,6.243692E1,6.125388E2,6.805549E1,1.540088E2,9.4755226E1,3.2045044E2,1.8312988E1,1.3485547E2,8.651974E0,5.3784946E1,7.13137E1,5.4122516E2,1.4950452E1,5.3105038E1,1.333431E2,2.0665705E1,4.9228264E1,4.5526962E1,6.910148E1,2.5134895E2,3.0680761E0,1.5244913E1,1.291752E2,5.6802583E0],"tree_param":{"num_deleted":"0","num_feature":"64","num_nodes":"31","size_leaf_vector":"1"}},{"base_weights":[-1.3885345E-2,-5.428671E-1,7.1558774E-1,4.1553244E-1,-7.8023905E-1,1.6710663E0,4.6746144E-1,-2.8983968E-1,1.1009002E0,8.8172084E-1,-8.343192E-1,1.9826161E0,9.275935E-1,2.5469799E-2,1.2713196E0,6.491259E-2,-6.480515E-2,1.9967291E-1,3.9325505E-2,-4.472443E-2,1.1176683E-1,1.5526855E-1,-8.681206E-2,3.0588824E-2,2.0569526E-1,-2.4115397E-3,2.0347841E-1,8.660975E-2,-3.2339666E-2,9.18676E-2,1.8622993E-1],"categories":[],"categories_nodes":[],"categories_segments":[],"categories_sizes":[],"default_left":[0,0,0,0,0,0,0,0,0,0,0,0,0,0,0,0,0,0,0,0,0,0,0,0,0,0,0,0,0,0,0],"id":4,"left_children":[1,3,5,7,9,11,13,15,17,19,21,23,25,27,29,-1,-1,-1,-1,-1,-1,-1,-1,-1,-1,-1,-1,-1,-1,-1,-1],"loss_changes":[5.574063E2,1.9080965E2,1.4317313E2,8.098881E1,6.108429E1,2.7065216E1,1.7172305E2,2.8345882E1,5.2998344E1,7.2874374E0,5.385669E1,1.0221924E1,4.0858795E1,9.2052505E1,3.402646E1,0E0,0E0,0E0,0E0,0E0,0E0,0E0,0E0,0E0,0E0,0E0,0E0,0E0,0E0,0E0,0E0],"parents":[2147483647,0,0,1,1,2,2,3,3,4,4,5,5,6,6,7,7,8,8,9,9,10,10,11,11,12,12,13,13,14,14],"right_children":[2,4,6,8,10,12,14,16,18,20,22,24,26,28,30,-1,-1,-1,-1,-1,-1,-1,-1,-1,-1,-1,-1,-1,-1,-1,-1],"split_conditions":[2.5827628E-2,3.1267762E-2,8.292666E-3,1.6831415E-2,1.9261533E-2,4.7375184E-2,6.3262545E-2,5.957091E-2,6.8686984E-2,5.7197055E-3,4.9587876E-2,1.7398845E-3,5.805924E-2,2.712312E-2,4.382999E-2,6.491259E-2,-6.480515E-2,1.9967291E-1,3.9325505E-2,-4.472443E-2,1.1176683E-1,1.5526855E-1,-8.681206E-2,3.0588824E-2,2.0569526E-1,-2.4115397E-3,2.0347841E-1,8.660975E-2,-3.2339666E-2,9.18676E-2,1.8622993E-1],"split_indices":[20,41,50,20,6,41,46,36,19,28,40,23,46,6,7,0,0,0,0,0,0,0,0,0,0,0,0,0,0,0,0],"split_type":[0,0,0,0,0,0,0,0,0,0,0,0,0,0,0,0,0,0,0,0,0,0,0,0,0,0,0,0,0,0,0],"sum_hessian":[1.4425078E3,8.363091E2,6.061987E2,1.6586629E2,6.704428E2,1.2378722E2,4.8241153E2,8.2024635E1,8.384165E1,2.0646366E1,6.4979645E2,8.605814E1,3.7729073E1,3.119315E2,1.7048004E2,2.2426601E1,5.9598038E1,3.6197067E1,4.7644585E1,2.9779058E0,1.766846E1,8.445577E0,6.413509E2,3.8704848E0,8.218765E1,2.0815174E1,1.6913898E1,9.1051476E1,2.2088E2,1.0836939E2,6.2110645E1],"tree_param":{"num_deleted":"0","num_feature":"64","num_nodes":"31","size_leaf_vector":"1"}},{"base_weights":[-1.6517341E-2,-5.193902E-1,6.853969E-1,-7.129102E-1,2.7736798E-1,2.728811E-1,1.3038447E0,3.9465377E-1,-8.226058E-1,1.1459655E0,-1.3676219E-1,1.4628302E0,-1.19262874E-1,1.6296384E0,9.349138E-1,-2.9215911E-2,1.4075106E-1,-4.9023028E-3,-9.0268515E-2,1.5887628E-1,2.8069986E-2,-4.3573063E-2,9.315295E-2,1.8704318E-1,9.7557165E-2,1.2834835E-1,-2.895028E-2,1.2280748E-1,1.88885E-1,4.09958E-2,1.5730838E-1],"categories":[],"categories_nodes":[],"categories_segments":[],"categories_sizes":[],"default_left":[0,0,0,0,0,0,0,0,0,0,0,0,0,0,0,0,0,0,0,0,0,0,0,0,0,0,0,0,0,0,0],"id":5,"left_children":[1,3,5,7,9,11,13,15,17,19,21,23,25,27,29,-1,-1,-1,-1,-1,-1,-1,-1,-1,-1,-1,-1,-1,-1,-1,-1],"loss_changes":[5.037468E2,1.2839722E2,1.516181E2,8.163449E1,5.8862106E1,1.6751198E2,2.7093689E1,4.2835743E1,3.769818E1,1.9782234E1,3.5986923E1,1.5843628E1,6.500282E1,1.0701019E1,3.7545906E1,0E0,0E0,0E0,0E0,0E0,0E0,0E0,0E0,0E0,0E0,0E0,0E0,0E0,0E0,0E0,0E0],"parents":[2147483647,0,0,1,1,2,2,3,3,4,4,5,5,6,6,7,7,8,8,9,9,10,10,11,11,12,12,13,13,14,14],"right_children":[2,4,6,8,10,12,14,16,18,20,22,24,26,28,30,-1,-1,-1,-1,-1,-1,-1,-1,-1,-1,-1,-1,-1,-1,-1,-1],"split_conditions":[2.682617E-2,1.0827314E-2,1.3563547E-2,7.978905E-2,9.7562104E-2,2.071338E-2,9.409793E-2,2.4161838E-2,6.212969E-4,8.459521E-2,2.0572968E-2,7.3400185E-2,7.6557204E-5,1.8767947E-2,4.382999E-2,-2.9215911E-2,1.4075106E-1,-4.9023028E-3,-9.0268515E-2,1.5887628E-1,2.8069986E-2,-4.3573063E-2,9.315295E-2,1.8704318E-1,9.7557165E-2,1.2834835E-1,-2.895028E-2,1.2280748E-1,1.88885E-1,4.09958E-2,1.5730838E-1],"split_indices":[7,62,23,25,21,56,36,49,10,16,62,36,14,28,7,0,0,0,0,0,0,0,0,0,0,0,0,0,0,0,0],"split_type":[0,0,0,0,0,0,0,0,0,0,0,0,0,0,0,0,0,0,0,0,0,0,0,0,0,0,0,0,0,0,0],"sum_hessian":[1.4251428E3,8.304459E2,5.946969E2,6.6824506E2,1.6220088E2,3.576075E2,2.370894E2,5.998604E1,6.0825903E2,5.179622E1,1.10404655E2,8.796129E1,2.6964624E2,1.2409074E2,1.1299866E2,3.617054E1,2.38155E1,5.7210106E1,5.510489E2,3.370938E1,1.8086838E1,8.672595E1,2.3678703E1,4.6349953E1,4.1611332E1,2.8475336E1,2.411709E2,5.0929623E1,7.316111E1,6.289988E1,5.009878E1],"tree_param":{"num_deleted":"0","num_feature":"64","num_nodes":"31","size_leaf_vector":"1"}},{"base_weights":[4.3292E-3,-5.148804E-1,6.162764E-1,5.1803774E-1,-7.29431E-1,1.5588177E0,3.6984396E-1,8.863873E-1,-2.757817E-1,-3.2836026E-1,-9.538287E-1,1.6639661E0,4.9201787E-1,-1.17017165E-1,1.055812E0,1.2143589E-2,1.408472E-1,-9.9618785E-2,2.5730664E-2,5.30683E-2,-5.04829E-2,2.8852263E-2,-9.89984E-2,1.1952593E-1,1.8898153E-1,-2.8649652E-2,1.663557E-1,1.3754246E-1,-2.7990038E-2,6.2414177E-2,1.4767459E-1],"categories":[],"categories_nodes":[],"categories_segments":[],"categories_sizes":[],"default_left":[0,0,0,0,0,0,0,0,0,0,0,0,0,0,0,0,0,0,0,0,0,0,0,0,0,0,0,0,0,0,0],"id":6,"left_children":[1,3,5,7,9,11,13,15,17,19,21,23,25,27,29,-1,-1,-1,-1,-1,-1,-1,-1,-1,-1,-1,-1,-1,-1,-1,-1],"loss_changes":[4.4305243E2,1.6755922E2,1.4809047E2,3.8353394E1,5.5941193E1,1.4027252E1,1.7001599E2,3.5476425E1,1.6413229E1,3.449392E1,1.8265228E1,1.044986E1,1.2601847E1,7.293206E1,3.7467285E1,0E0,0E0,0E0,0E0,0E0,0E0,0E0,0E0,0E0,0E0,0E0,0E0,0E0,0E0,0E0,0E0],"parents":[2147483647,0,0,1,1,2,2,3,3,4,4,5,5,6,6,7,7,8,8,9,9,10,10,11,11,12,12,13,13,14,14],"right_children":[2,4,6,8,10,12,14,16,18,20,22,24,26,28,30,-1,-1,-1,-1,-1,-1,-1,-1,-1,-1,-1,-1,-1,-1,-1,-1],"split_conditions":[2.5325563E-2,5.1200446E-2,2.415309E-2,8.229878E-2,1.5181844E-3,5.0217617E-2,5.9738066E-2,1.6891763E-2,6.5354966E-2,3.0730039E-2,8.545128E-3,1.6336303E-2,1.3571942E-1,6.692888E-2,4.4915292E-2,1.2143589E-2,1.408472E-1,-9.9618785E-2,2.5730664E-2,5.30683E-2,-5.04829E-2,2.8852263E-2,-9.89984E-2,1.1952593E-1,1.8898153E-1,-2.8649652E-2,1.663557E-1,1.3754246E-1,-2.7990038E-2,6.2414177E-2,1.4767459E-1],"split_indices":[20,34,56,57,27,41,46,20,24,41,61,43,13,40,20,0,0,0,0,0,0,0,0,0,0,0,0,0,0,0,0],"split_type":[0,0,0,0,0,0,0,0,0,0,0,0,0,0,0,0,0,0,0,0,0,0,0,0,0,0,0,0,0,0,0],"sum_hessian":[1.3924369E3,7.5338354E2,6.390534E2,1.293302E2,6.2405334E2,1.3134947E2,5.0770392E2,8.825934E1,4.1070873E1,2.2477379E2,3.9927957E2,1.1905512E2,1.2294348E1,2.974326E2,2.1027132E2,3.6302303E1,5.195703E1,1.7097246E1,2.3973627E1,3.7963184E1,1.8681061E2,1.1093961E1,3.881856E2,4.0759304E1,7.829582E1,7.8399653E0,4.4543824E0,2.853472E1,2.6889786E2,1.05037476E2,1.0523384E2],"tree_param":{"num_deleted":"0","num_feature":"64","num_nodes":"31","size_leaf_vector":"1"}},{"base_weights":[-3.1778975E-3,-4.6792674E-1,5.677136E-1,6.130203E-1,-6.425996E-1,1.4503618E0,3.396965E-1,1.0890527E0,-7.814368E-2,-8.326148E-1,-8.5997775E-2,2.2685052E-1,1.5291005E0,-2.2900403E-1,9.4223696E-1,3.7957516E-2,1.4865085E-1,9.50871E-2,-5.7885487E-2,-4.7003854E-2,-1.0346495E-1,7.151338E-2,-5.1948447E-2,1.3371995E-1,-3.458258E-2,1.5639636E-1,-8.260093E-2,9.981919E-2,-4.5356404E-2,1.2186829E-2,1.1394181E-1],"categories":[],"categories_nodes":[],"categories_segments":[],"categories_sizes":[],"default_left":[0,0,0,0,0,0,0,0,0,0,0,0,0,0,0,0,0,0,0,0,0,0,0,0,0,0,0,0,0,0,0],"id":7,"left_children":[1,3,5,7,9,11,13,15,17,19,21,23,25,27,29,-1,-1,-1,-1,-1,-1,-1,-1,-1,-1,-1,-1,-1,-1,-1,-1],"loss_changes":[3.6481006E2,1.4350302E2,1.2369E2,3.4944912E1,6.899072E1,1.1827209E1,1.6869073E2,1.7146446E1,2.3295452E1,3.516516E1,5.8472416E1,6.067589E0,1.1025848E1,7.037749E1,3.8509674E1,0E0,0E0,0E0,0E0,0E0,0E0,0E0,0E0,0E0,0E0,0E0,0E0,0E0,0E0,0E0,0E0],"parents":[2147483647,0,0,1,1,2,2,3,3,4,4,5,5,6,6,7,7,8,8,9,9,10,10,11,11,12,12,13,13,14,14],"right_children":[2,4,6,8,10,12,14,16,18,20,22,24,26,28,30,-1,-1,-1,-1,-1,-1,-1,-1,-1,-1,-1,-1,-1,-1,-1,-1],"split_conditions":[2.5827628E-2,4.6595782E-2,2.415309E-2,6.7880236E-2,9.6169645E-3,1.7931955E-3,1.3674683E-2,5.5888398E-3,2.0470163E-2,1.5181844E-3,9.56305E-2,1.354415E-1,6.408987E-2,2.2035766E-2,1.36758825E-2,3.7957516E-2,1.4865085E-1,9.50871E-2,-5.7885487E-2,-4.7003854E-2,-1.0346495E-1,7.151338E-2,-5.1948447E-2,1.3371995E-1,-3.458258E-2,1.5639636E-1,-8.260093E-2,9.981919E-2,-4.5356404E-2,1.2186829E-2,1.1394181E-1],"split_indices":[20,34,56,36,62,23,62,28,6,27,21,1,50,6,43,0,0,0,0,0,0,0,0,0,0,0,0,0,0,0,0],"split_type":[0,0,0,0,0,0,0,0,0,0,0,0,0,0,0,0,0,0,0,0,0,0,0,0,0,0,0,0,0,0,0],"sum_hessian":[1.3729741E3,7.5694446E2,6.1602966E2,1.04951584E2,6.5199286E2,1.2536896E2,4.906607E2,6.1806965E1,4.3144623E1,4.8569E2,1.6630286E2,7.8149247E0,1.1755403E2,2.5273746E2,2.3792326E2,2.2894396E1,3.891257E1,1.382786E1,2.9316761E1,1.7498476E2,3.1070523E2,5.8162457E1,1.081404E2,2.204898E0,5.6100264E0,1.1617028E2,1.3837532E0,3.8560955E1,2.141765E2,4.6418404E1,1.9150485E2],"tree_param":{"num_deleted":"0","num_feature":"64","num_nodes":"31","size_leaf_vector":"1"}},{"base_weights":[-2.1940004E-2,-3.9199606E-1,5.638725E-1,4.002483E-1,-7.097142E-1,1.4789151E0,3.9525324E-1,-1.341861E-1,7.854506E-1,6.844615E-1,-7.6221067E-1,1.552347E0,-7.9682183E-1,-7.970145E-2,7.7873474E-1,1.0244896E-1,-4.159579E-2,1.16077594E-1,2.2901284E-2,-2.2176042E-2,1.272835E-1,-5.2205123E-2,-9.453658E-2,-2.1527084E-2,1.5799914E-1,-9.431298E-2,-2.4058275E-2,-2.5417134E-2,1.2815978E-1,1.14489056E-1,3.55411E-2],"categories":[],"categories_nodes":[],"categories_segments":[],"categories_sizes":[],"default_left":[0,0,0,0,0,0,0,0,0,0,0,0,0,0,0,0,0,0,0,0,0,0,0,0,0,0,0,0,0,0,0],"id":8,"left_children":[1,3,5,7,9,11,13,15,17,19,21,23,25,27,29,-1,-1,-1,-1,-1,-1,-1,-1,-1,-1,-1,-1,-1,-1,-1,-1],"loss_changes":[2.9149466E2,2.0770258E2,7.973755E1,4.8795307E1,4.3595306E1,1.4712479E1,8.037343E1,3.3048546E1,2.8469688E1,1.1950235E1,2.4474915E1,4.173889E0,3.2011986E-2,4.732449E1,3.742238E1,0E0,0E0,0E0,0E0,0E0,0E0,0E0,0E0,0E0,0E0,0E0,0E0,0E0,0E0,0E0,0E0],"parents":[2147483647,0,0,1,1,2,2,3,3,4,4,5,5,6,6,7,7,8,8,9,9,10,10,11,11,12,12,13,13,14,14],"right_children":[2,4,6,8,10,12,14,16,18,20,22,24,26,28,30,-1,-1,-1,-1,-1,-1,-1,-1,-1,-1,-1,-1,-1,-1,-1,-1],"split_conditions":[1.0336371E-2,2.5276603E-2,4.8044778E-5,2.0582752E-2,1.7944646E-4,1.6640711E-1,7.006843E-2,6.6446714E-2,2.5880618E-2,9.265726E-3,1.8352697E-3,1.0353298E-2,1.8767947E-2,1.5365284E-2,1.2714298E-1,1.0244896E-1,-4.159579E-2,1.16077594E-1,2.2901284E-2,-2.2176042E-2,1.272835E-1,-5.2205123E-2,-9.453658E-2,-2.1527084E-2,1.5799914E-1,-9.431298E-2,-2.4058275E-2,-2.5417134E-2,1.2815978E-1,1.14489056E-1,3.55411E-2],"split_indices":[62,6,14,20,10,56,18,25,56,43,27,20,28,12,5,0,0,0,0,0,0,0,0,0,0,0,0,0,0,0,0],"split_type":[0,0,0,0,0,0,0,0,0,0,0,0,0,0,0,0,0,0,0,0,0,0,0,0,0,0,0,0,0,0,0],"sum_hessian":[1.3426154E3,8.2303644E2,5.1957886E2,2.3551341E2,5.87523E2,7.9638054E1,4.3994083E2,9.892094E1,1.3659248E2,2.0883047E1,5.6663995E2,7.745661E1,2.1814427E0,1.9688469E2,2.4305612E2,1.883471E1,8.008623E1,8.0922806E1,5.5669674E1,8.466267E0,1.24167795E1,2.4683351E2,3.1980646E2,1.0882046E0,7.636841E1,1.1764522E0,1.0049907E0,1.7523865E2,2.1646042E1,1.294142E2,1.1364193E2],"tree_param":{"num_deleted":"0","num_feature":"64","num_nodes":"31","size_leaf_vector":"1"}},{"base_weights":[-5.44188E-3,-4.1019192E-1,5.063026E-1,7.762931E-1,-5.347897E-1,1.1292754E0,2.1570733E-1,-1.567432E-1,1.3577617E0,-6.9522226E-1,-4.687392E-2,1.4103774E0,6.5903616E-1,-7.794054E-2,8.9468974E-1,4.980967E-2,-9.021152E-2,3.6588915E-2,1.7675431E-1,-7.923171E-3,-8.3299085E-2,2.9964298E-2,-5.3735286E-2,9.2577904E-2,1.7022721E-1,1.1145854E-2,1.4268897E-1,7.204402E-2,-3.9066684E-2,-3.231065E-2,1.07941166E-1],"categories":[],"categories_nodes":[],"categories_segments":[],"categories_sizes":[],"default_left":[0,0,0,0,0,0,0,0,0,0,0,0,0,0,0,0,0,0,0,0,0,0,0,0,0,0,0,0,0,0,0],"id":9,"left_children":[1,3,5,7,9,11,13,15,17,19,21,23,25,27,29,-1,-1,-1,-1,-1,-1,-1,-1,-1,-1,-1,-1,-1,-1,-1,-1],"loss_changes":[2.7095392E2,1.0839605E2,1.0434244E2,3.8094032E1,5.1755844E1,2.3330322E1,7.886319E1,1.3971596E1,1.6879105E1,4.2180695E1,2.8167553E1,1.4547821E1,2.9500834E1,6.939062E1,2.7206451E1,0E0,0E0,0E0,0E0,0E0,0E0,0E0,0E0,0E0,0E0,0E0,0E0,0E0,0E0,0E0,0E0],"parents":[2147483647,0,0,1,1,2,2,3,3,4,4,5,5,6,6,7,7,8,8,9,9,10,10,11,11,12,12,13,13,14,14],"right_children":[2,4,6,8,10,12,14,16,18,20,22,24,26,28,30,-1,-1,-1,-1,-1,-1,-1,-1,-1,-1,-1,-1,-1,-1,-1,-1],"split_conditions":[2.682617E-2,5.5218402E-2,6.7986664E-3,6.1661163E-3,1.0206035E-2,9.088481E-2,6.3262545E-2,3.3606008E-2,1.6110921E-2,2.4148148E-2,1.799852E-2,1.2123927E-2,2.7627993E-2,2.426039E-2,9.050956E-3,4.980967E-2,-9.021152E-2,3.6588915E-2,1.7675431E-1,-7.923171E-3,-8.3299085E-2,2.9964298E-2,-5.3735286E-2,9.2577904E-2,1.7022721E-1,1.1145854E-2,1.4268897E-1,7.204402E-2,-3.9066684E-2,-3.231065E-2,1.07941166E-1],"split_indices":[7,36,47,62,62,36,46,41,7,6,61,28,62,56,43,0,0,0,0,0,0,0,0,0,0,0,0,0,0,0,0],"split_type":[0,0,0,0,0,0,0,0,0,0,0,0,0,0,0,0,0,0,0,0,0,0,0,0,0,0,0,0,0,0,0],"sum_hessian":[1.3061409E3,7.294227E2,5.7671814E2,6.882308E1,6.605996E2,1.825292E2,3.9418893E2,2.6703901E1,4.2119183E1,4.9681577E2,1.6378384E2,1.1298763E2,6.954157E1,2.7579688E2,1.1839206E2,1.4391832E1,1.2312068E1,1.2867175E1,2.9252008E1,9.1093575E1,4.057222E2,9.6205215E1,6.7578636E1,4.404182E1,6.8945816E1,4.1261803E1,2.8279774E1,7.725738E1,1.9853949E2,1.54944315E1,1.0289763E2],"tree_param":{"num_deleted":"0","num_feature":"64","num_nodes":"31","size_leaf_vector":"1"}},{"base_weights":[-4.0394347E-3,-4.4073012E-1,3.9864874E-1,1.3041642E-1,-7.406804E-1,1.1181372E0,2.1721075E-1,8.4722984E-1,-1.3948768E-1,-7.908252E-1,5.0777674E-1,-1.7698947E-1,1.2446781E0,-1.5649284E-1,6.4961946E-1,3.883285E-2,1.623664E-1,-5.1998585E-2,3.772805E-2,-3.1106276E-2,-9.052404E-2,1.7213984E-1,-2.658616E-2,1.4029215E-1,-5.6976635E-2,1.4462112E-1,8.0896966E-2,6.009238E-2,-3.971422E-2,3.756344E-2,1.192063E-1],"categories":[],"categories_nodes":[],"categories_segments":[],"categories_sizes":[],"default_left":[0,0,0,0,0,0,0,0,0,0,0,0,0,0,0,0,0,0,0,0,0,0,0,0,0,0,0,0,0,0,0],"id":10,"left_children":[1,3,5,7,9,11,13,15,17,19,21,23,25,27,29,-1,-1,-1,-1,-1,-1,-1,-1,-1,-1,-1,-1,-1,-1,-1,-1],"loss_changes":[2.2555188E2,1.0551298E2,8.686852E1,4.1275696E1,2.5668564E1,2.2205246E1,8.641729E1,2.0153427E1,3.0752527E1,2.1038956E1,1.5662134E1,8.752216E0,9.57196E0,5.261146E1,3.638388E1,0E0,0E0,0E0,0E0,0E0,0E0,0E0,0E0,0E0,0E0,0E0,0E0,0E0,0E0,0E0,0E0],"parents":[2147483647,0,0,1,1,2,2,3,3,4,4,5,5,6,6,7,7,8,8,9,9,10,10,11,11,12,12,13,13,14,14],"right_children":[2,4,6,8,10,12,14,16,18,20,22,24,26,28,30,-1,-1,-1,-1,-1,-1,-1,-1,-1,-1,-1,-1,-1,-1,-1,-1],"split_conditions":[2.4227278E-2,3.4396615E-2,8.374316E-3,5.985434E-2,2.9545898E-2,1.8238821E-3,5.571427E-2,1.6975291E-2,2.3462724E-2,6.283281E-2,1.260129E-1,1.0339703E-1,4.422321E-2,2.4490688E-2,4.8918385E-2,3.883285E-2,1.623664E-1,-5.1998585E-2,3.772805E-2,-3.1106276E-2,-9.052404E-2,1.7213984E-1,-2.658616E-2,1.4029215E-1,-5.6976635E-2,1.4462112E-1,8.0896966E-2,6.009238E-2,-3.971422E-2,3.756344E-2,1.192063E-1],"split_indices":[20,41,50,36,23,23,46,15,7,34,5,31,41,6,20,0,0,0,0,0,0,0,0,0,0,0,0,0,0,0,0],"split_type":[0,0,0,0,0,0,0,0,0,0,0,0,0,0,0,0,0,0,0,0,0,0,0,0,0,0,0,0,0,0,0],"sum_hessian":[1.2806376E3,6.1433466E2,6.6630286E2,2.1173236E2,4.0260233E2,1.3314732E2,5.331555E2,5.7331615E1,1.5440074E2,3.8740845E2,1.5193857E1,1.1815804E1,1.2133152E2,2.8633356E2,2.4682196E2,3.697699E1,2.0354626E1,8.892139E1,6.5479355E1,7.531568E1,3.1209277E2,5.4380355E0,9.755821E0,1.8405496E0,9.975254E0,8.137365E1,3.9957874E1,6.867854E1,2.1765503E2,1.6511554E2,8.170642E1],"tree_param":{"num_deleted":"0","num_feature":"64","num_nodes":"31","size_leaf_vector":"1"}},{"base_weights":[-2.4285978E-2,-4.0814474E-1,4.3053588E-1,9.238741E-2,-6.948457E-1,1.1357819E0,2.584168E-1,-3.2639882E-1,8.347509E-1,-7.860987E-1,2.0722607E-1,3.3703047E-1,1.2943057E0,-2.8641202E-2,1.0374893E0,-7.52161E-2,1.2659403E-2,9.741494E-2,-6.738112E-2,1.05729304E-1,-8.11733E-2,1.0763136E-1,-3.479996E-2,1.4258276E-1,-2.7597865E-2,8.38372E-2,1.492611E-1,7.995345E-2,-1.9410137E-2,-4.7293487E-3,1.2341638E-1],"categories":[],"categories_nodes":[],"categories_segments":[],"categories_sizes":[],"default_left":[0,0,0,0,0,0,0,0,0,0,0,0,0,0,0,0,0,0,0,0,0,0,0,0,0,0,0,0,0,0,0],"id":11,"left_children":[1,3,5,7,9,11,13,15,17,19,21,23,25,27,29,-1,-1,-1,-1,-1,-1,-1,-1,-1,-1,-1,-1,-1,-1,-1,-1],"loss_changes":[2.1885063E2,9.761258E1,6.935298E1,7.751195E1,3.5750107E1,1.3778763E1,1.03461655E2,3.086882E1,1.9558765E1,1.9420258E1,1.9920805E1,1.3704211E1,7.1861725E0,4.660022E1,2.6632004E1,0E0,0E0,0E0,0E0,0E0,0E0,0E0,0E0,0E0,0E0,0E0,0E0,0E0,0E0,0E0,0E0],"parents":[2147483647,0,0,1,1,2,2,3,3,4,4,5,5,6,6,7,7,8,8,9,9,10,10,11,11,12,12,13,13,14,14],"right_children":[2,4,6,8,10,12,14,16,18,20,22,24,26,28,30,-1,-1,-1,-1,-1,-1,-1,-1,-1,-1,-1,-1,-1,-1,-1,-1],"split_conditions":[2.6195649E-2,3.515448E-2,2.415309E-2,7.0997095E-3,1.632083E-2,2.522793E-2,2.1497693E-2,1.6891763E-2,2.8244746E-1,1.6578522E-2,8.459521E-2,1.5051799E-1,7.57926E-2,2.2404663E-2,1.1418297E-2,-7.52161E-2,1.2659403E-2,9.741494E-2,-6.738112E-2,1.05729304E-1,-8.11733E-2,1.0763136E-1,-3.479996E-2,1.4258276E-1,-2.7597865E-2,8.38372E-2,1.492611E-1,7.995345E-2,-1.9410137E-2,-4.7293487E-3,1.2341638E-1],"split_indices":[20,41,56,62,62,7,62,20,1,6,16,1,24,6,43,0,0,0,0,0,0,0,0,0,0,0,0,0,0,0,0],"split_type":[0,0,0,0,0,0,0,0,0,0,0,0,0,0,0,0,0,0,0,0,0,0,0,0,0,0,0,0,0,0,0],"sum_hessian":[1.2515243E3,6.7876526E2,5.7275903E2,2.4744508E2,4.313202E2,1.1126394E2,4.614951E2,1.585585E2,8.888658E1,3.9181317E2,3.9507027E1,1.8942862E1,9.2321075E1,3.379404E2,1.23554695E2,8.139549E1,7.7163E1,8.1692085E1,7.194497E0,4.8218703E0,3.869913E2,1.5034774E1,2.4472254E1,6.3458047E0,1.2597057E1,2.9567842E1,6.275323E1,5.5635674E1,2.8230472E2,1.9079405E1,1.04475296E2],"tree_param":{"num_deleted":"0","num_feature":"64","num_nodes":"31","size_leaf_vector":"1"}},{"base_weights":[1.9878058E-3,-3.9249468E-1,3.834753E-1,5.9468734E-1,-6.050332E-1,9.0461123E-1,5.791817E-2,-6.8395495E-1,7.795555E-1,-3.2899115E-2,-7.384786E-1,4.7356403E-1,1.215283E0,-5.2861553E-1,4.244919E-1,7.028614E-2,-1.0469419E-1,1.0114328E-1,-3.6245447E-3,-7.058918E-2,6.2069952E-2,-5.999175E-3,-7.926084E-2,9.460392E-2,-1.065399E-2,-3.0980587E-2,1.2602165E-1,6.82983E-2,-6.614678E-2,8.869861E-2,-1.8795381E-3],"categories":[],"categories_nodes":[],"categories_segments":[],"categories_sizes":[],"default_left":[0,0,0,0,0,0,0,0,0,0,0,0,0,0,0,0,0,0,0,0,0,0,0,0,0,0,0,0,0,0,0],"id":12,"left_children":[1,3,5,7,9,11,13,15,17,19,21,23,25,27,29,-1,-1,-1,-1,-1,-1,-1,-1,-1,-1,-1,-1,-1,-1,-1,-1],"loss_changes":[1.8567262E2,1.27625694E2,1.0636168E2,2.60531E1,3.811972E1,3.1711304E1,8.345833E1,7.869054E0,1.7967896E1,4.246126E1,1.4829086E1,2.8228598E1,9.94841E0,2.4489334E1,4.897185E1,0E0,0E0,0E0,0E0,0E0,0E0,0E0,0E0,0E0,0E0,0E0,0E0,0E0,0E0,0E0,0E0],"parents":[2147483647,0,0,1,1,2,2,3,3,4,4,5,5,6,6,7,7,8,8,9,9,10,10,11,11,12,12,13,13,14,14],"right_children":[2,4,6,8,10,12,14,16,18,20,22,24,26,28,30,-1,-1,-1,-1,-1,-1,-1,-1,-1,-1,-1,-1,-1,-1,-1,-1],"split_conditions":[8.460779E-3,2.1172825E-2,7.2962105E-2,1.4482343E-2,1.9474266E-2,8.7672536E-4,3.41538E-2,1.4793085E-2,6.6093095E-2,2.3183428E-2,5.680908E-2,1.0409825E-1,1.1397706E-2,8.949062E-2,1.14518695E-1,7.028614E-2,-1.0469419E-1,1.0114328E-1,-3.6245447E-3,-7.058918E-2,6.2069952E-2,-5.999175E-3,-7.926084E-2,9.460392E-2,-1.065399E-2,-3.0980587E-2,1.2602165E-1,6.82983E-2,-6.614678E-2,8.869861E-2,-1.8795381E-3],"split_indices":[62,6,34,20,56,27,15,6,34,7,36,57,15,5,34,0,0,0,0,0,0,0,0,0,0,0,0,0,0,0,0],"split_type":[0,0,0,0,0,0,0,0,0,0,0,0,0,0,0,0,0,0,0,0,0,0,0,0,0,0,0,0,0,0,0],"sum_hessian":[1.2317858E3,6.055645E2,6.262213E2,1.06961296E2,4.986032E2,2.4010089E2,3.8612042E2,1.317015E1,9.3791145E1,9.453596E1,4.0406726E2,1.016245E2,1.3847641E2,1.4833539E2,2.3778503E2,2.5378385E0,1.0632311E1,7.28461E1,2.0945044E1,4.6537525E1,4.799843E1,3.0010496E1,3.7405676E2,5.5660267E1,4.5964226E1,3.7944384E0,1.3468196E2,1.4248617E1,1.3408678E2,1.1588158E2,1.2190346E2],"tree_param":{"num_deleted":"0","num_feature":"64","num_nodes":"31","size_leaf_vector":"1"}},{"base_weights":[-1.1538919E-2,-4.1075897E-1,3.3848765E-1,2.07376E-1,-6.1613303E-1,1.0865827E0,1.8905424E-1,-8.350822E-2,1.4128785E0,-6.980699E-1,2.8143176E-1,1.211688E0,1.0169247E-1,8.673449E-1,5.3345915E-2,6.046131E-2,-4.3648727E-2,1.5358604E-1,-2.5157297E-2,-3.898043E-2,-9.06711E-2,1.2530841E-1,-2.8315539E-2,1.2646103E-1,-2.535306E-2,-5.6880306E-2,1.1183631E-1,3.9121863E-2,1.0886011E-1,-2.2474855E-2,5.9154153E-2],"categories":[],"categories_nodes":[],"categories_segments":[],"categories_sizes":[],"default_left":[0,0,0,0,0,0,0,0,0,0,0,0,0,0,0,0,0,0,0,0,0,0,0,0,0,0,0,0,0,0,0],"id":13,"left_children":[1,3,5,7,9,11,13,15,17,19,21,23,25,27,29,-1,-1,-1,-1,-1,-1,-1,-1,-1,-1,-1,-1,-1,-1,-1,-1],"loss_changes":[1.6835696E2,7.157951E1,7.1561104E1,4.9601223E1,3.1285172E1,1.3020683E1,4.9319954E1,2.8105885E1,6.0129128E0,2.4579025E1,2.0144526E1,7.6530457E0,9.576054E0,8.986275E0,6.717793E1,0E0,0E0,0E0,0E0,0E0,0E0,0E0,0E0,0E0,0E0,0E0,0E0,0E0,0E0,0E0,0E0],"parents":[2147483647,0,0,1,1,2,2,3,3,4,4,5,5,6,6,7,7,8,8,9,9,10,10,11,11,12,12,13,13,14,14],"right_children":[2,4,6,8,10,12,14,16,18,20,22,24,26,28,30,-1,-1,-1,-1,-1,-1,-1,-1,-1,-1,-1,-1,-1,-1,-1,-1],"split_conditions":[2.4227278E-2,7.724217E-2,1.0310523E-4,9.870656E-2,1.7002458E-2,4.1025735E-2,2.3189824E-2,4.0558126E-2,1.9962908E-1,1.5623455E-3,1.1131099E-1,2.8980878E-1,2.6797527E-2,9.309371E-3,1.632083E-2,6.046131E-2,-4.3648727E-2,1.5358604E-1,-2.5157297E-2,-3.898043E-2,-9.06711E-2,1.2530841E-1,-2.8315539E-2,1.2646103E-1,-2.535306E-2,-5.6880306E-2,1.1183631E-1,3.9121863E-2,1.0886011E-1,-2.2474855E-2,5.9154153E-2],"split_indices":[20,5,14,38,62,50,56,34,0,27,5,31,62,12,62,0,0,0,0,0,0,0,0,0,0,0,0,0,0,0,0],"split_type":[0,0,0,0,0,0,0,0,0,0,0,0,0,0,0,0,0,0,0,0,0,0,0,0,0,0,0,0,0,0,0],"sum_hessian":[1.2028127E3,5.618386E2,6.409741E2,1.4011389E2,4.217247E2,1.0567443E2,5.352997E2,1.1362681E2,2.648709E1,3.8665042E2,3.5074265E1,9.355975E1,1.211468E1,8.83453E1,4.4695438E2,3.828281E1,7.5344E1,2.4736624E1,1.7504663E0,1.5722299E2,2.2942743E2,1.24420595E1,2.2632206E1,9.0430405E1,3.1293473E0,7.5656486E0,4.5490313E0,2.8907265E1,5.9438038E1,2.9506955E2,1.5188484E2],"tree_param":{"num_deleted":"0","num_feature":"64","num_nodes":"31","size_leaf_vector":"1"}},{"base_weights":[3.7897115E-3,-4.557969E-1,2.7821982E-1,7.7902246E-1,-5.6738895E-1,1.0398015E0,1.17384575E-1,4.8878204E-2,1.3851587E0,-3.294012E-1,-8.4041476E-1,1.1471606E0,-5.4452455E-1,-1.2824196E-1,8.3403426E-1,-6.50865E-2,8.352684E-2,1.712087E-1,-5.485332E-2,-5.13225E-2,2.514298E-2,1.5872276E-1,-8.714896E-2,7.073218E-2,1.4085008E-1,-1.19383216E-1,8.408459E-2,-2.7775649E-2,5.1037263E-2,1.4151177E-1,5.6108594E-2],"categories":[],"categories_nodes":[],"categories_segments":[],"categories_sizes":[],"default_left":[0,0,0,0,0,0,0,0,0,0,0,0,0,0,0,0,0,0,0,0,0,0,0,0,0,0,0,0,0,0,0],"id":14,"left_children":[1,3,5,7,9,11,13,15,17,19,21,23,25,27,29,-1,-1,-1,-1,-1,-1,-1,-1,-1,-1,-1,-1,-1,-1,-1,-1],"loss_changes":[1.5011957E2,6.1762238E1,9.116145E1,1.6441853E1,2.6279388E1,2.2705048E1,1.0861476E2,1.0425249E1,1.3801689E1,2.3619387E1,1.56936035E1,1.301561E1,9.024508E0,4.405822E1,2.418303E1,0E0,0E0,0E0,0E0,0E0,0E0,0E0,0E0,0E0,0E0,0E0,0E0,0E0,0E0,0E0,0E0],"parents":[2147483647,0,0,1,1,2,2,3,3,4,4,5,5,6,6,7,7,8,8,9,9,10,10,11,11,12,12,13,13,14,14],"right_children":[2,4,6,8,10,12,14,16,18,20,22,24,26,28,30,-1,-1,-1,-1,-1,-1,-1,-1,-1,-1,-1,-1,-1,-1,-1,-1],"split_conditions":[2.2863744E-2,5.196445E-2,6.680291E-2,1.0354776E-1,2.2471172E-3,1.9096633E-2,1.9666813E-2,1.6749043E-2,1.3389386E-1,2.988789E-2,3.0641962E-4,9.432621E-3,7.0730634E-3,6.325328E-2,8.439999E-2,-6.50865E-2,8.352684E-2,1.712087E-1,-5.485332E-2,-5.13225E-2,2.514298E-2,1.5872276E-1,-8.714896E-2,7.073218E-2,1.4085008E-1,-1.19383216E-1,8.408459E-2,-2.7775649E-2,5.1037263E-2,1.4151177E-1,5.6108594E-2],"split_indices":[7,36,36,38,27,47,23,7,37,15,10,28,23,30,16,0,0,0,0,0,0,0,0,0,0,0,0,0,0,0,0],"split_type":[0,0,0,0,0,0,0,0,0,0,0,0,0,0,0,0,0,0,0,0,0,0,0,0,0,0,0,0,0,0,0],"sum_hessian":[1.1882446E3,4.440072E2,7.4423737E2,3.6304092E1,4.0770312E2,1.2881445E2,6.154229E2,1.6957697E1,1.9346394E1,2.1900769E2,1.8869542E2,1.2089794E2,7.9165072E0,4.5894418E2,1.5647876E2,9.06439E0,7.893307E0,1.664657E1,2.699824E0,1.6644643E2,5.2561268E1,1.7519387E0,1.8694348E2,4.6441998E1,7.445595E1,5.484324E0,2.4321833E0,3.7233658E2,8.660758E1,4.867319E1,1.0780557E2],"tree_param":{"num_deleted":"0","num_feature":"64","num_nodes":"31","size_leaf_vector":"1"}},{"base_weights":[-1.23666385E-2,-2.6276848E-1,3.8758585E-1,1.7829524E-1,-4.9412957E-1,7.8897005E-1,1.5116002E-1,-1.3438041E-2,9.902931E-1,-6.214825E-1,3.0192766E-1,5.010912E-1,1.2150894E0,-1.0558194E-1,8.0132085E-1,3.591677E-2,-4.9105298E-2,1.286652E-1,2.2761231E-2,-6.960963E-2,3.99051E-2,1.1048993E-1,-2.2043709E-2,1.073959E-1,1.6739782E-2,2.1963548E-2,1.3865706E-1,4.7504894E-2,-3.1750716E-2,-5.407223E-2,9.824967E-2],"categories":[],"categories_nodes":[],"categories_segments":[],"categories_sizes":[],"default_left":[0,0,0,0,0,0,0,0,0,0,0,0,0,0,0,0,0,0,0,0,0,0,0,0,0,0,0,0,0,0,0],"id":15,"left_children":[1,3,5,7,9,11,13,15,17,19,21,23,25,27,29,-1,-1,-1,-1,-1,-1,-1,-1,-1,-1,-1,-1,-1,-1,-1,-1],"loss_changes":[1.15699905E2,7.258495E1,4.209333E1,3.818401E1,4.7457634E1,1.9589073E1,4.7018677E1,3.564934E1,1.0295837E1,3.0910172E1,2.7498318E1,1.8930138E1,1.0907883E1,2.5063082E1,1.9913685E1,0E0,0E0,0E0,0E0,0E0,0E0,0E0,0E0,0E0,0E0,0E0,0E0,0E0,0E0,0E0,0E0],"parents":[2147483647,0,0,1,1,2,2,3,3,4,4,5,5,6,6,7,7,8,8,9,9,10,10,11,11,12,12,13,13,14,14],"right_children":[2,4,6,8,10,12,14,16,18,20,22,24,26,28,30,-1,-1,-1,-1,-1,-1,-1,-1,-1,-1,-1,-1,-1,-1,-1,-1],"split_conditions":[7.006843E-2,6.0973376E-2,6.657984E-2,1.6035836E-2,6.2519796E-2,2.8501105E-2,2.1497693E-2,7.1937228E-3,8.48664E-2,6.767163E-2,8.6062185E-2,5.963831E-2,9.265726E-3,8.862136E-3,1.1059166E-2,3.591677E-2,-4.9105298E-2,1.286652E-1,2.2761231E-2,-6.960963E-2,3.99051E-2,1.1048993E-1,-2.2043709E-2,1.073959E-1,1.6739782E-2,2.1963548E-2,1.3865706E-1,4.7504894E-2,-3.1750716E-2,-5.407223E-2,9.824967E-2],"split_indices":[18,34,34,28,49,29,62,26,19,30,36,37,43,26,43,0,0,0,0,0,0,0,0,0,0,0,0,0,0,0,0],"split_type":[0,0,0,0,0,0,0,0,0,0,0,0,0,0,0,0,0,0,0,0,0,0,0,0,0,0,0,0,0,0,0],"sum_hessian":[1.1532627E3,7.094401E2,4.4382254E2,2.4417587E2,4.6526428E2,1.636515E2,2.8017105E2,1.9832886E2,4.584702E1,4.0128598E2,6.3978287E1,9.896703E1,6.468446E1,2.0145578E2,7.8715256E1,1.1155135E2,8.67775E1,3.2522552E1,1.3324466E1,3.7424213E2,2.7043867E1,2.4776703E1,3.9201584E1,3.5611916E1,6.3355118E1,9.8405485E0,5.4843918E1,5.3536194E1,1.4791959E2,9.126563E0,6.958869E1],"tree_param":{"num_deleted":"0","num_feature":"64","num_nodes":"31","size_leaf_vector":"1"}},{"base_weights":[-2.6842935E-3,-3.5041994E-1,2.8182212E-1,3.7070435E-1,-5.138352E-1,7.268212E-1,4.9682166E-2,5.056691E-1,-6.670298E-1,-2.500917E-1,-8.4012216E-1,9.8912567E-1,7.347886E-2,-2.440034E-1,7.2540075E-1,1.2832989E-1,2.8571505E-2,-9.223517E-2,9.139378E-2,-4.3285742E-2,4.8993353E-2,3.2302774E-2,-9.016019E-2,4.0321287E-2,1.19119875E-1,-3.922006E-2,6.4507194E-2,1.011246E-1,-3.3274554E-2,9.666334E-2,2.3235462E-3],"categories":[],"categories_nodes":[],"categories_segments":[],"categories_sizes":[],"default_left":[0,0,0,0,0,0,0,0,0,0,0,0,0,0,0,0,0,0,0,0,0,0,0,0,0,0,0,0,0,0,0],"id":16,"left_children":[1,3,5,7,9,11,13,15,17,19,21,23,25,27,29,-1,-1,-1,-1,-1,-1,-1,-1,-1,-1,-1,-1,-1,-1,-1,-1],"loss_changes":[1.1265553E2,6.057418E1,6.466171E1,1.3677297E1,3.5775337E1,3.6710625E1,8.206901E1,1.4146927E1,5.4418335E0,3.1680706E1,1.3627502E1,1.7642746E1,1.6907047E1,3.246142E1,2.1196281E1,0E0,0E0,0E0,0E0,0E0,0E0,0E0,0E0,0E0,0E0,0E0,0E0,0E0,0E0,0E0,0E0],"parents":[2147483647,0,0,1,1,2,2,3,3,4,4,5,5,6,6,7,7,8,8,9,9,10,10,11,11,12,12,13,13,14,14],"right_children":[2,4,6,8,10,12,14,16,18,20,22,24,26,28,30,-1,-1,-1,-1,-1,-1,-1,-1,-1,-1,-1,-1,-1,-1,-1,-1],"split_conditions":[2.3997905E-2,4.8491195E-2,1.064888E-1,8.138113E-2,2.2211312E-3,7.640705E-2,1.926093E-2,4.281673E-3,1.7419305E-3,5.0336856E-2,2.8523023E-3,1.8603915E-2,3.186932E-2,1.6578522E-2,2.558891E-1,1.2832989E-1,2.8571505E-2,-9.223517E-2,9.139378E-2,-4.3285742E-2,4.8993353E-2,3.2302774E-2,-9.016019E-2,4.0321287E-2,1.19119875E-1,-3.922006E-2,6.4507194E-2,1.011246E-1,-3.3274554E-2,9.666334E-2,2.3235462E-3],"split_indices":[20,34,57,36,27,34,62,26,27,46,12,15,15,6,25,0,0,0,0,0,0,0,0,0,0,0,0,0,0,0,0],"split_type":[0,0,0,0,0,0,0,0,0,0,0,0,0,0,0,0,0,0,0,0,0,0,0,0,0,0,0,0,0,0,0],"sum_hessian":[1.1367068E3,5.114093E2,6.252975E2,9.4246544E1,4.1716275E2,2.1363686E2,4.1166064E2,8.385351E1,1.0393035E1,2.3166794E2,1.854948E2,1.520698E2,6.156707E1,2.8739145E2,1.2426919E2,1.7422674E1,6.643083E1,9.306631E0,1.0864042E0,1.8611722E2,4.555072E1,9.098772E0,1.7639603E2,3.9765297E1,1.123045E2,3.409972E1,2.746735E1,1.8289713E1,2.691017E2,9.221246E1,3.205673E1],"tree_param":{"num_deleted":"0","num_feature":"64","num_nodes":"31","size_leaf_vector":"1"}},{"base_weights":[-1.5273183E-3,-3.503677E-1,2.554014E-1,6.483773E-1,-4.7398737E-1,6.702562E-1,-1.5122981E-2,8.3166677E-1,-8.8342583E-1,1.0865041E0,-5.2382004E-1,3.421773E-1,9.904209E-1,-5.76642E-1,2.3819086E-1,1.1404784E-1,2.3509232E-2,-1.3247563E-1,5.85738E-2,1.3207082E-1,-6.880043E-2,3.5828855E-2,-5.8411192E-2,9.290408E-2,-2.1285607E-2,1.21656395E-1,4.8569642E-2,1.0048654E-1,-6.571952E-2,2.218802E-3,9.258801E-2],"categories":[],"categories_nodes":[],"categories_segments":[],"categories_sizes":[],"default_left":[0,0,0,0,0,0,0,0,0,0,0,0,0,0,0,0,0,0,0,0,0,0,0,0,0,0,0,0,0,0,0],"id":17,"left_children":[1,3,5,7,9,11,13,15,17,19,21,23,25,27,29,-1,-1,-1,-1,-1,-1,-1,-1,-1,-1,-1,-1,-1,-1,-1,-1],"loss_changes":[9.958549E1,5.8491207E1,7.18195E1,1.5426474E1,3.3224518E1,2.6191505E1,5.536575E1,8.436855E0,4.7162824E0,6.4445705E0,2.1887688E1,4.1328842E1,1.3939362E1,1.6075062E1,3.9829956E1,0E0,0E0,0E0,0E0,0E0,0E0,0E0,0E0,0E0,0E0,0E0,0E0,0E0,0E0,0E0,0E0],"parents":[2147483647,0,0,1,1,2,2,3,3,4,4,5,5,6,6,7,7,8,8,9,9,10,10,11,11,12,12,13,13,14,14],"right_children":[2,4,6,8,10,12,14,16,18,20,22,24,26,28,30,-1,-1,-1,-1,-1,-1,-1,-1,-1,-1,-1,-1,-1,-1,-1,-1],"split_conditions":[7.732193E-3,1.8422548E-2,7.325912E-2,2.9164463E-2,9.867582E-5,1.5464355E-2,3.1223252E-2,1.6195083E-2,3.981692E-3,4.3163937E-2,3.993995E-2,6.766268E-2,9.522102E-2,7.277065E-2,4.5751754E-2,1.1404784E-1,2.3509232E-2,-1.3247563E-1,5.85738E-2,1.3207082E-1,-6.880043E-2,3.5828855E-2,-5.8411192E-2,9.290408E-2,-2.1285607E-2,1.21656395E-1,4.8569642E-2,1.0048654E-1,-6.571952E-2,2.218802E-3,9.258801E-2],"split_indices":[62,6,34,28,10,28,15,6,27,41,34,36,19,57,20,0,0,0,0,0,0,0,0,0,0,0,0,0,0,0,0],"split_type":[0,0,0,0,0,0,0,0,0,0,0,0,0,0,0,0,0,0,0,0,0,0,0,0,0,0,0,0,0,0,0],"sum_hessian":[1.1091106E3,4.7025992E2,6.3885065E2,5.13279E1,4.18932E2,2.5157599E2,3.872747E2,4.6250782E1,5.077118E0,1.2320401E1,4.066116E2,1.2527405E2,1.2630195E2,1.1999849E2,2.6727618E2,2.9874695E1,1.6376087E1,3.9798737E0,1.0972445E0,1.1109832E1,1.2105701E0,2.5697548E1,3.8091406E2,6.05635E1,6.471055E1,8.624798E1,4.005397E1,5.259709E0,1.1473878E2,2.0417667E2,6.3099525E1],"tree_param":{"num_deleted":"0","num_feature":"64","num_nodes":"31","size_leaf_vector":"1"}},{"base_weights":[-1.2625012E-2,-3.8457972E-1,2.1485692E-1,4.5927334E-1,-5.048195E-1,1.2042534E0,1.0727759E-1,-5.600578E-1,8.286054E-1,1.0145379E0,-5.3944814E-1,2.754523E-1,1.294831E0,-3.8567236E-1,2.996237E-1,5.511384E-2,-9.497398E-2,1.9149153E-2,1.3062593E-1,-4.5279212E-2,1.334142E-1,-5.713596E-2,6.9754906E-2,1.1337619E-1,-9.494581E-2,1.853247E-2,1.3903777E-1,-4.9793933E-2,5.5254698E-2,7.305378E-2,1.20918555E-2],"categories":[],"categories_nodes":[],"categories_segments":[],"categories_sizes":[],"default_left":[0,0,0,0,0,0,0,0,0,0,0,0,0,0,0,0,0,0,0,0,0,0,0,0,0,0,0,0,0,0,0],"id":18,"left_children":[1,3,5,7,9,11,13,15,17,19,21,23,25,27,29,-1,-1,-1,-1,-1,-1,-1,-1,-1,-1,-1,-1,-1,-1,-1,-1],"loss_changes":[9.328687E1,4.268303E1,7.269106E1,2.0305487E1,1.9839493E1,5.279648E0,5.8727276E1,6.851435E0,1.1645651E1,4.5987854E0,1.4576233E1,8.670613E0,6.184868E0,1.8596285E1,3.4196327E1,0E0,0E0,0E0,0E0,0E0,0E0,0E0,0E0,0E0,0E0,0E0,0E0,0E0,0E0,0E0,0E0],"parents":[2147483647,0,0,1,1,2,2,3,3,4,4,5,5,6,6,7,7,8,8,9,9,10,10,11,11,12,12,13,13,14,14],"right_children":[2,4,6,8,10,12,14,16,18,20,22,24,26,28,30,-1,-1,-1,-1,-1,-1,-1,-1,-1,-1,-1,-1,-1,-1,-1,-1],"split_conditions":[5.2929106E-3,1.5359596E-2,4.448239E-3,1.5851073E-2,3.0399946E-2,4.2740192E-2,2.2389766E-2,1.7448228E-2,5.565408E-2,5.3326704E-2,4.6612956E-2,1.1763724E-1,1.4687553E-2,9.631972E-2,3.8853515E-2,5.511384E-2,-9.497398E-2,1.9149153E-2,1.3062593E-1,-4.5279212E-2,1.334142E-1,-5.713596E-2,6.9754906E-2,1.1337619E-1,-9.494581E-2,1.853247E-2,1.3903777E-1,-4.9793933E-2,5.5254698E-2,7.305378E-2,1.20918555E-2],"split_indices":[23,56,50,20,17,33,7,6,24,24,28,0,20,2,41,0,0,0,0,0,0,0,0,0,0,0,0,0,0,0,0],"split_type":[0,0,0,0,0,0,0,0,0,0,0,0,0,0,0,0,0,0,0,0,0,0,0,0,0,0,0,0,0,0,0],"sum_hessian":[1.1005361E3,4.1738354E2,6.831526E2,5.1703617E1,3.656799E2,6.599637E1,6.171562E2,1.3613868E1,3.808975E1,7.5181274E0,3.5816177E2,6.223224E0,5.9773144E1,1.7293877E2,4.4421744E2,3.4270751E0,1.0186792E1,1.692089E1,2.116886E1,1.2701274E0,6.248E0,3.4967905E2,8.482749E0,3.702941E0,2.5202835E0,4.9723907E0,5.4800755E1,1.5487569E2,1.8063091E1,1.2931367E2,3.1490375E2],"tree_param":{"num_deleted":"0","num_feature":"64","num_nodes":"31","size_leaf_vector":"1"}},{"base_weights":[2.225104E-3,-2.9689476E-1,2.5747085E-1,2.2100322E-1,-4.4586924E-1,9.164042E-1,1.5086177E-1,-9.455977E-3,1.0980355E0,-5.0429374E-1,6.2647265E-1,1.0701139E0,-1.272898E-1,-2.0718396E-1,3.5720193E-1,8.999722E-2,-2.0161783E-2,1.3399617E-1,1.4048136E-2,-2.7074698E-2,-7.642775E-2,1.2756754E-1,-3.497587E-2,5.6652166E-2,1.4358847E-1,-5.413903E-2,1.0129595E-1,5.304863E-2,-3.948002E-2,8.8404015E-2,1.4881554E-2],"categories":[],"categories_nodes":[],"categories_segments":[],"categories_sizes":[],"default_left":[0,0,0,0,0,0,0,0,0,0,0,0,0,0,0,0,0,0,0,0,0,0,0,0,0,0,0,0,0,0,0],"id":19,"left_children":[1,3,5,7,9,11,13,15,17,19,21,23,25,27,29,-1,-1,-1,-1,-1,-1,-1,-1,-1,-1,-1,-1,-1,-1,-1,-1],"loss_changes":[8.176775E1,3.8143726E1,4.0455532E1,2.2410496E1,2.4329079E1,1.3014511E1,3.6909134E1,1.5692103E1,5.1561947E0,2.1896652E1,1.3279759E1,1.2094681E1,5.8361454E0,2.5524878E1,3.4634274E1,0E0,0E0,0E0,0E0,0E0,0E0,0E0,0E0,0E0,0E0,0E0,0E0,0E0,0E0,0E0,0E0],"parents":[2147483647,0,0,1,1,2,2,3,3,4,4,5,5,6,6,7,7,8,8,9,9,10,10,11,11,12,12,13,13,14,14],"right_children":[2,4,6,8,10,12,14,16,18,20,22,24,26,28,30,-1,-1,-1,-1,-1,-1,-1,-1,-1,-1,-1,-1,-1,-1,-1,-1],"split_conditions":[6.2645525E-2,2.5534857E-2,6.23712E-2,1.1053538E-2,4.13987E-2,1.2935941E-1,2.9602528E-2,1.6195083E-2,5.982526E-2,7.8184746E-2,4.849574E-2,2.0538794E-2,3.565772E-2,1.7373972E-1,1.3603004E-2,8.999722E-2,-2.0161783E-2,1.3399617E-1,1.4048136E-2,-2.7074698E-2,-7.642775E-2,1.2756754E-1,-3.497587E-2,5.6652166E-2,1.4358847E-1,-5.413903E-2,1.0129595E-1,5.304863E-2,-3.948002E-2,8.8404015E-2,1.4881554E-2],"split_indices":[18,6,36,12,28,57,15,6,18,36,56,15,28,53,50,0,0,0,0,0,0,0,0,0,0,0,0,0,0,0,0],"split_type":[0,0,0,0,0,0,0,0,0,0,0,0,0,0,0,0,0,0,0,0,0,0,0,0,0,0,0,0,0,0,0],"sum_hessian":[1.0689712E3,4.9210974E2,5.7686145E2,1.09825745E2,3.82284E2,7.9275665E1,4.9758582E2,8.775535E1,2.20704E1,3.6303445E2,1.9249521E1,6.907705E1,1.0198619E1,1.8191647E2,3.1566934E2,1.4665548E1,7.30898E1,1.7300152E1,4.770247E0,1.9231596E2,1.707185E2,1.1376987E1,7.8725348E0,3.0135454E1,3.8941593E1,7.866843E0,2.3317754E0,3.6515842E1,1.4540063E2,8.85519E1,2.2711743E2],"tree_param":{"num_deleted":"0","num_feature":"64","num_nodes":"31","size_leaf_vector":"1"}},{"base_weights":[5.7153464E-3,-3.7765342E-1,1.9066203E-1,-1.00284405E-1,-6.903268E-1,8.810846E-1,9.037139E-2,-6.1904705E-1,7.0825554E-2,4.5721608E-1,-7.571412E-1,4.841791E-2,1.0513773E0,-1.1032052E-1,3.883234E-1,1.2748413E-1,-7.245489E-2,-9.772091E-3,9.083452E-2,-8.756611E-3,1.5602912E-1,1.2286892E-1,-7.7951185E-2,1.0290221E-1,-2.854347E-2,1.3390361E-1,7.6522395E-2,5.5139452E-2,-2.4105523E-2,8.366402E-2,1.7526707E-2],"categories":[],"categories_nodes":[],"categories_segments":[],"categories_sizes":[],"default_left":[0,0,0,0,0,0,0,0,0,0,0,0,0,0,0,0,0,0,0,0,0,0,0,0,0,0,0,0,0,0,0],"id":20,"left_children":[1,3,5,7,9,11,13,15,17,19,21,23,25,27,29,-1,-1,-1,-1,-1,-1,-1,-1,-1,-1,-1,-1,-1,-1,-1,-1],"loss_changes":[7.527726E1,2.9895668E1,4.950999E1,1.6400024E1,1.278624E1,1.2813118E1,3.7502228E1,1.0076044E1,1.9774689E1,5.8758807E0,7.7857666E0,5.679691E0,5.1711197E0,3.2582176E1,2.3957092E1,0E0,0E0,0E0,0E0,0E0,0E0,0E0,0E0,0E0,0E0,0E0,0E0,0E0,0E0,0E0,0E0],"parents":[2147483647,0,0,1,1,2,2,3,3,4,4,5,5,6,6,7,7,8,8,9,9,10,10,11,11,12,12,13,13,14,14],"right_children":[2,4,6,8,10,12,14,16,18,20,22,24,26,28,30,-1,-1,-1,-1,-1,-1,-1,-1,-1,-1,-1,-1,-1,-1,-1,-1],"split_conditions":[2.2181718E-2,1.8902954E-3,4.8044778E-5,4.3672286E-3,8.1892696E-4,5.963267E-3,1.0883443E-2,8.756539E-4,8.873129E-3,1.5993148E-1,5.647339E-2,3.3453826E-2,3.692962E-2,4.7825812E-3,8.981628E-3,1.2748413E-1,-7.245489E-2,-9.772091E-3,9.083452E-2,-8.756611E-3,1.5602912E-1,1.2286892E-1,-7.7951185E-2,1.0290221E-1,-2.854347E-2,1.3390361E-1,7.6522395E-2,5.5139452E-2,-2.4105523E-2,8.366402E-2,1.7526707E-2],"split_indices":[7,27,14,62,10,62,23,62,12,38,48,30,41,26,26,0,0,0,0,0,0,0,0,0,0,0,0,0,0,0,0],"split_type":[0,0,0,0,0,0,0,0,0,0,0,0,0,0,0,0,0,0,0,0,0,0,0,0,0,0,0,0,0,0,0],"sum_hessian":[1.0596813E3,3.4451257E2,7.1516864E2,1.832629E2,1.612497E2,8.9721436E1,6.254472E2,4.480562E1,1.3845728E2,8.550528E0,1.5269916E2,1.5451881E1,7.4269554E1,3.7409637E2,2.5135083E2,1.77941E0,4.3026207E1,1.1599683E2,2.2460436E1,6.33998E0,2.2105467E0,1.1003191E0,1.5159885E2,3.3956847E0,1.2056196E1,3.5202457E1,3.9067097E1,6.1185856E1,3.1291052E2,8.002791E1,1.7132292E2],"tree_param":{"num_deleted":"0","num_feature":"64","num_nodes":"31","size_leaf_vector":"1"}},{"base_weights":[6.55763E-3,-3.4207138E-1,2.1594924E-1,-4.8894864E-1,3.8086978E-1,7.8872466E-1,6.35446E-2,6.5978426E-1,-5.6792223E-1,1.1254064E0,-4.423017E-1,1.4543489E0,5.9749013E-1,4.6836215E-1,-9.739797E-2,-1.1647156E-2,1.13529205E-1,-8.154703E-2,-3.309491E-2,1.4652936E-1,2.1272327E-3,8.966333E-2,-6.8032295E-2,1.1573674E-1,2.2851077E-1,-4.4976525E-2,7.167118E-2,2.1412706E-2,1.1209382E-1,-4.7744814E-2,3.163159E-2],"categories":[],"categories_nodes":[],"categories_segments":[],"categories_sizes":[],"default_left":[0,0,0,0,0,0,0,0,0,0,0,0,0,0,0,0,0,0,0,0,0,0,0,0,0,0,0,0,0,0,0],"id":21,"left_children":[1,3,5,7,9,11,13,15,17,19,21,23,25,27,29,-1,-1,-1,-1,-1,-1,-1,-1,-1,-1,-1,-1,-1,-1,-1,-1],"loss_changes":[7.6593704E1,4.199282E1,5.7170597E1,3.0101173E1,4.158872E1,1.665541E1,3.3848286E1,8.083203E0,1.7747269E1,1.3286194E1,1.098644E1,4.763935E0,1.3887142E1,2.427499E1,5.865106E1,0E0,0E0,0E0,0E0,0E0,0E0,0E0,0E0,0E0,0E0,0E0,0E0,0E0,0E0,0E0,0E0],"parents":[2147483647,0,0,1,1,2,2,3,3,4,4,5,5,6,6,7,7,8,8,9,9,10,10,11,11,12,12,13,13,14,14],"right_children":[2,4,6,8,10,12,14,16,18,20,22,24,26,28,30,-1,-1,-1,-1,-1,-1,-1,-1,-1,-1,-1,-1,-1,-1,-1,-1],"split_conditions":[7.0997095E-3,5.7187844E-2,8.5439775E-3,1.2117554E-1,4.3163937E-2,6.516958E-2,7.53114E-2,1.2755725E-2,1.982775E-2,1.0526596E-1,2.0263706E-1,8.0968095E-3,1.8238821E-3,3.24396E-2,3.3083484E-2,-1.1647156E-2,1.13529205E-1,-8.154703E-2,-3.309491E-2,1.4652936E-1,2.1272327E-3,8.966333E-2,-6.8032295E-2,1.1573674E-1,2.2851077E-1,-4.4976525E-2,7.167118E-2,2.1412706E-2,1.1209382E-1,-4.7744814E-2,3.163159E-2],"split_indices":[62,30,50,51,41,19,36,15,20,34,53,47,23,15,20,0,0,0,0,0,0,0,0,0,0,0,0,0,0,0,0],"split_type":[0,0,0,0,0,0,0,0,0,0,0,0,0,0,0,0,0,0,0,0,0,0,0,0,0,0,0,0,0,0,0],"sum_hessian":[1.047217E3,3.9271985E2,6.544972E2,3.2667432E2,6.604553E1,1.3667238E2,5.1782477E2,2.0540598E1,3.061337E2,3.4486374E1,3.1559158E1,2.902854E1,1.0764384E2,1.4676297E2,3.7106183E2,8.089587E0,1.2451011E1,1.4853212E2,1.576016E2,2.6119019E1,8.367355E0,4.345802E0,2.7213358E1,2.314703E1,5.881509E0,1.0718545E1,9.6925285E1,1.0657203E2,4.019094E1,1.9331902E2,1.777428E2],"tree_param":{"num_deleted":"0","num_feature":"64","num_nodes":"31","size_leaf_vector":"1"}},{"base_weights":[-2.588722E-2,-1.301091E-1,5.6590885E-1,1.8853307E-1,-4.0500164E-1,1.006744E0,1.6311298E-1,4.0402327E-2,9.709139E-1,5.3192884E-1,-4.620952E-1,-2.667543E-1,1.0797254E0,-5.739507E-1,5.2973413E-1,2.9260749E-2,-3.873905E-2,1.181159E-1,3.7088912E-2,-7.6351605E-2,7.948264E-2,-5.8802772E-2,-2.2507026E-3,6.5904275E-2,-7.8065656E-2,1.1283886E-1,-3.954383E-3,-8.846131E-2,8.1534274E-2,-4.373632E-2,8.381199E-2],"categories":[],"categories_nodes":[],"categories_segments":[],"categories_sizes":[],"default_left":[0,0,0,0,0,0,0,0,0,0,0,0,0,0,0,0,0,0,0,0,0,0,0,0,0,0,0,0,0,0,0],"id":22,"left_children":[1,3,5,7,9,11,13,15,17,19,21,23,25,27,29,-1,-1,-1,-1,-1,-1,-1,-1,-1,-1,-1,-1,-1,-1,-1,-1],"loss_changes":[6.3263477E1,7.644927E1,2.7109547E1,4.6840668E1,2.5302238E1,7.086006E0,2.2315033E1,3.6920948E1,7.6799164E0,9.927821E0,2.4457413E1,2.7821572E0,3.8233414E0,1.2606519E1,1.6745045E1,0E0,0E0,0E0,0E0,0E0,0E0,0E0,0E0,0E0,0E0,0E0,0E0,0E0,0E0,0E0,0E0],"parents":[2147483647,0,0,1,1,2,2,3,3,4,4,5,5,6,6,7,7,8,8,9,9,10,10,11,11,12,12,13,13,14,14],"right_children":[2,4,6,8,10,12,14,16,18,20,22,24,26,28,30,-1,-1,-1,-1,-1,-1,-1,-1,-1,-1,-1,-1,-1,-1,-1,-1],"split_conditions":[2.0572968E-2,6.861343E-2,1.8916273E-1,2.1252004E-2,4.142063E-3,9.572885E-3,2.8024958E-2,7.641053E-2,2.7913846E-2,1.4356744E-2,6.4275876E-2,1.6231245E-1,1.438265E-1,1.0612416E-1,3.1871308E-2,2.9260749E-2,-3.873905E-2,1.181159E-1,3.7088912E-2,-7.6351605E-2,7.948264E-2,-5.8802772E-2,-2.2507026E-3,6.5904275E-2,-7.8065656E-2,1.1283886E-1,-3.954383E-3,-8.846131E-2,8.1534274E-2,-4.373632E-2,8.381199E-2],"split_indices":[62,34,60,28,50,28,11,36,50,20,30,31,54,37,28,0,0,0,0,0,0,0,0,0,0,0,0,0,0,0,0],"split_type":[0,0,0,0,0,0,0,0,0,0,0,0,0,0,0,0,0,0,0,0,0,0,0,0,0,0,0,0,0,0,0],"sum_hessian":[1.0235104E3,8.70913E2,1.5259735E2,4.0350436E2,4.6740863E2,7.214247E1,8.045487E1,3.401536E2,6.335076E1,2.6368767E1,4.410399E2,3.766327E0,6.8376144E1,2.6537584E1,5.391729E1,2.1419249E2,1.2596111E2,4.6195587E1,1.7155178E1,4.1272473E0,2.224152E1,3.4256476E2,9.847511E1,1.2435814E0,2.5227454E0,6.551937E1,2.856771E0,2.198479E1,4.5527945E0,1.293498E1,4.098231E1],"tree_param":{"num_deleted":"0","num_feature":"64","num_nodes":"31","size_leaf_vector":"1"}},{"base_weights":[9.604885E-3,-3.0361322E-1,1.9519979E-1,-4.2659777E-1,4.6944338E-1,6.370945E-1,2.1923324E-2,1.5507038E-1,-6.02878E-1,1.23651E0,-5.713858E-1,7.5507385E-1,-4.819224E-1,-2.1393313E-1,4.738427E-1,4.0350873E-2,-4.0017035E-2,-2.922465E-2,-8.190796E-2,1.5547545E-1,-6.331873E-2,8.872589E-2,-7.244662E-2,6.400399E-2,1.7070931E-1,-1.1684976E-2,-1.2922098E-1,3.1230692E-2,-3.8369857E-2,9.202726E-2,2.1936944E-2],"categories":[],"categories_nodes":[],"categories_segments":[],"categories_sizes":[],"default_left":[0,0,0,0,0,0,0,0,0,0,0,0,0,0,0,0,0,0,0,0,0,0,0,0,0,0,0,0,0,0,0],"id":23,"left_children":[1,3,5,7,9,11,13,15,17,19,21,23,25,27,29,-1,-1,-1,-1,-1,-1,-1,-1,-1,-1,-1,-1,-1,-1,-1,-1],"loss_changes":[5.9331604E1,3.6306065E1,4.9056396E1,3.3742413E1,4.2701664E1,2.4190453E1,4.9279087E1,1.0799445E1,1.668782E1,1.9191265E1,5.778788E0,1.6829704E1,5.121413E0,2.7265007E1,1.7807922E1,0E0,0E0,0E0,0E0,0E0,0E0,0E0,0E0,0E0,0E0,0E0,0E0,0E0,0E0,0E0,0E0],"parents":[2147483647,0,0,1,1,2,2,3,3,4,4,5,5,6,6,7,7,8,8,9,9,10,10,11,11,12,12,13,13,14,14],"right_children":[2,4,6,8,10,12,14,16,18,20,22,24,26,28,30,-1,-1,-1,-1,-1,-1,-1,-1,-1,-1,-1,-1,-1,-1,-1,-1],"split_conditions":[7.0997095E-3,5.9864946E-2,3.8853515E-2,4.6595782E-2,9.349877E-2,6.2490616E-2,3.9243948E-2,2.2240613E-2,1.4981109E-3,4.0991303E-2,5.434927E-2,5.103138E-2,2.3230119E-1,6.7029176E-3,4.657902E-2,4.0350873E-2,-4.0017035E-2,-2.922465E-2,-8.190796E-2,1.5547545E-1,-6.331873E-2,8.872589E-2,-7.244662E-2,6.400399E-2,1.7070931E-1,-1.1684976E-2,-1.2922098E-1,3.1230692E-2,-3.8369857E-2,9.202726E-2,2.1936944E-2],"split_indices":[62,30,41,34,34,56,20,56,27,56,40,29,57,26,56,0,0,0,0,0,0,0,0,0,0,0,0,0,0,0,0],"split_type":[0,0,0,0,0,0,0,0,0,0,0,0,0,0,0,0,0,0,0,0,0,0,0,0,0,0,0,0,0,0,0],"sum_hessian":[1.0186218E3,3.787652E2,6.398566E2,3.271651E2,5.160009E1,1.7947571E2,4.6038095E2,7.6118576E1,2.5104654E2,2.9598606E1,2.2001482E1,1.6265231E2,1.6823402E1,3.0285022E2,1.5753073E2,5.2777115E1,2.3341455E1,1.039895E2,1.4705704E2,2.543732E1,4.161285E0,1.6341605E0,2.0367321E1,1.4660954E2,1.604276E1,1.2386782E1,4.4366207E0,7.366458E1,2.2918564E2,5.6243946E1,1.0128678E2],"tree_param":{"num_deleted":"0","num_feature":"64","num_nodes":"31","size_leaf_vector":"1"}},{"base_weights":[-1.6147528E-2,-1.9133304E-1,3.3494678E-1,1.2305096E-1,-4.0231153E-1,9.0862393E-1,1.710308E-1,-2.4687733E-1,4.6839374E-1,-6.5913665E-1,-1.6651641E-1,3.680955E-1,1.0915527E0,-1.3076514E-1,4.6619767E-1,-5.6870796E-2,2.8014276E-2,7.672759E-2,-1.2552929E-2,-7.695726E-2,3.673308E-2,3.2067195E-2,-4.732826E-2,1.17174305E-1,-1.2458171E-2,7.732532E-2,1.4318413E-1,1.3648023E-2,-4.7844052E-2,9.4627276E-2,1.51178455E-2],"categories":[],"categories_nodes":[],"categories_segments":[],"categories_sizes":[],"default_left":[0,0,0,0,0,0,0,0,0,0,0,0,0,0,0,0,0,0,0,0,0,0,0,0,0,0,0,0,0,0,0],"id":24,"left_children":[1,3,5,7,9,11,13,15,17,19,21,23,25,27,29,-1,-1,-1,-1,-1,-1,-1,-1,-1,-1,-1,-1,-1,-1,-1,-1],"loss_changes":[6.145884E1,4.4260452E1,3.1123718E1,3.44097E1,2.405931E1,6.8844795E0,2.3216797E1,2.2253304E1,2.480254E1,2.189975E1,3.144865E1,8.12076E0,4.801132E0,1.2080046E1,1.9764368E1,0E0,0E0,0E0,0E0,0E0,0E0,0E0,0E0,0E0,0E0,0E0,0E0,0E0,0E0,0E0,0E0],"parents":[2147483647,0,0,1,1,2,2,3,3,4,4,5,5,6,6,7,7,8,8,9,9,10,10,11,11,12,12,13,13,14,14],"right_children":[2,4,6,8,10,12,14,16,18,20,22,24,26,28,30,-1,-1,-1,-1,-1,-1,-1,-1,-1,-1,-1,-1,-1,-1,-1,-1],"split_conditions":[7.48787E-2,1.6632633E-1,1.0478554E-1,1.982775E-2,1.2273947E-1,2.1126088E-2,4.1421074E-2,1.8144045E-2,9.481331E-2,5.956578E-2,8.068509E-2,8.423718E-2,2.9417751E-2,2.2431415E-1,1.0378113E-1,-5.6870796E-2,2.8014276E-2,7.672759E-2,-1.2552929E-2,-7.695726E-2,3.673308E-2,3.2067195E-2,-4.732826E-2,1.17174305E-1,-1.2458171E-2,7.732532E-2,1.4318413E-1,1.3648023E-2,-4.7844052E-2,9.4627276E-2,1.51178455E-2],"split_indices":[18,0,57,20,38,20,15,15,57,30,36,25,15,1,36,0,0,0,0,0,0,0,0,0,0,0,0,0,0,0,0],"split_type":[0,0,0,0,0,0,0,0,0,0,0,0,0,0,0,0,0,0,0,0,0,0,0,0,0,0,0,0,0,0,0],"sum_hessian":[9.9718097E2,6.6554767E2,3.3163327E2,2.6744235E2,3.9810535E2,7.268951E1,2.5894376E2,1.2926254E2,1.3817981E2,1.8969572E2,2.0840962E2,1.9141453E1,5.3548054E1,1.2830954E2,1.3063423E2,8.020523E1,4.9057304E1,9.172754E1,4.6452274E1,1.7149512E2,1.8200602E1,8.0507286E1,1.2790234E2,6.751003E0,1.23904505E1,2.9358763E1,2.418929E1,7.2889496E1,5.5420044E1,5.0963818E1,7.967041E1],"tree_param":{"num_deleted":"0","num_feature":"64","num_nodes":"31","size_leaf_vector":"1"}},{"base_weights":[-3.727458E-2,-2.8788286E-1,1.521772E-1,6.442769E-3,-5.787932E-1,7.894603E-1,3.692922E-2,-2.0252085E-1,7.244342E-1,6.163984E-1,-6.367575E-1,9.435469E-1,4.11821E-2,6.0054773E-1,-6.937178E-2,5.353072E-3,-6.7275114E-2,1.20654285E-1,-1.0015946E-2,-3.3443476E-4,1.5280496E-1,-7.826146E-2,-2.630013E-2,3.660659E-2,1.0905001E-1,-1.09910004E-1,3.3048406E-2,3.5891958E-2,1.3093992E-1,-1.752998E-2,4.8385426E-2],"categories":[],"categories_nodes":[],"categories_segments":[],"categories_sizes":[],"default_left":[0,0,0,0,0,0,0,0,0,0,0,0,0,0,0,0,0,0,0,0,0,0,0,0,0,0,0,0,0,0,0],"id":25,"left_children":[1,3,5,7,9,11,13,15,17,19,21,23,25,27,29,-1,-1,-1,-1,-1,-1,-1,-1,-1,-1,-1,-1,-1,-1,-1,-1],"loss_changes":[4.6602444E1,3.6180992E1,4.103508E1,3.1806406E1,1.5114471E1,9.828159E0,2.8472502E1,1.9809671E1,1.9118668E1,5.8456516E0,1.0869804E1,5.619137E0,5.528813E0,1.2444647E1,2.353344E1,0E0,0E0,0E0,0E0,0E0,0E0,0E0,0E0,0E0,0E0,0E0,0E0,0E0,0E0,0E0,0E0],"parents":[2147483647,0,0,1,1,2,2,3,3,4,4,5,5,6,6,7,7,8,8,9,9,10,10,11,11,12,12,13,13,14,14],"right_children":[2,4,6,8,10,12,14,16,18,20,22,24,26,28,30,-1,-1,-1,-1,-1,-1,-1,-1,-1,-1,-1,-1,-1,-1,-1,-1],"split_conditions":[2.4227278E-2,7.3252E-2,1.0310523E-4,2.4461692E-2,5.7936523E-2,3.5911873E-2,2.3189824E-2,3.7372902E-2,8.878885E-2,2.36042E-2,1.8024328E-3,1.0450105E-1,2.9364445E-3,5.8918525E-2,1.0598751E-1,5.353072E-3,-6.7275114E-2,1.20654285E-1,-1.0015946E-2,-3.3443476E-4,1.5280496E-1,-7.826146E-2,-2.630013E-2,3.660659E-2,1.0905001E-1,-1.09910004E-1,3.3048406E-2,3.5891958E-2,1.3093992E-1,-1.752998E-2,4.8385426E-2],"split_indices":[20,36,14,15,16,50,56,41,34,7,14,38,26,30,18,0,0,0,0,0,0,0,0,0,0,0,0,0,0,0,0],"split_type":[0,0,0,0,0,0,0,0,0,0,0,0,0,0,0,0,0,0,0,0,0,0,0,0,0,0,0,0,0,0,0],"sum_hessian":[9.796321E2,4.2152112E2,5.5811096E2,2.100167E2,2.1150443E2,8.457717E1,4.7353378E2,1.6322868E2,4.6788006E1,9.33744E0,2.0216698E2,6.991849E1,1.4658681E1,7.440128E1,3.991325E2,1.0625595E2,5.6972733E1,2.9233238E1,1.7554766E1,6.1517773E0,3.1856625E0,1.4463126E2,5.7535732E1,1.4891296E1,5.5027195E1,2.3999896E0,1.2258691E1,5.6610607E1,1.7790676E1,3.355641E2,6.3568424E1],"tree_param":{"num_deleted":"0","num_feature":"64","num_nodes":"31","size_leaf_vector":"1"}},{"base_weights":[-2.5178082E-2,-3.0182824E-1,1.3207398E-1,8.6427844E-1,-4.1284627E-1,1.2750858E-2,5.936237E-1,1.0141802E0,-1.0805851E-1,-1.05440035E-1,-6.217198E-1,2.5317428E-1,-2.6636052E-1,1.0726198E0,1.2179046E-1,-5.2723505E-2,1.1020308E-1,-2.6125146E-2,7.102423E-2,-1.6195033E-2,-7.5239755E-2,1.4951435E-3,6.71818E-2,-4.8060756E-2,3.8626768E-2,8.345464E-2,1.719836E-1,-3.2292496E-2,7.075417E-2],"categories":[],"categories_nodes":[],"categories_segments":[],"categories_sizes":[],"default_left":[0,0,0,0,0,0,0,0,0,0,0,0,0,0,0,0,0,0,0,0,0,0,0,0,0,0,0,0,0],"id":26,"left_children":[1,3,5,7,9,11,13,15,-1,17,19,21,23,25,27,-1,-1,-1,-1,-1,-1,-1,-1,-1,-1,-1,-1,-1,-1],"loss_changes":[4.199337E1,4.5641914E1,3.3893562E1,1.0055168E1,2.0485954E1,3.2957848E1,2.8442623E1,4.5145054E0,0E0,1.6796192E1,1.13162E1,2.6301762E1,3.1968279E1,8.211845E0,1.7113018E1,0E0,0E0,0E0,0E0,0E0,0E0,0E0,0E0,0E0,0E0,0E0,0E0,0E0,0E0],"parents":[2147483647,0,0,1,1,2,2,3,3,4,4,5,5,6,6,7,7,9,9,10,10,11,11,12,12,13,13,14,14],"right_children":[2,4,6,8,10,12,14,16,-1,18,20,22,24,26,28,-1,-1,-1,-1,-1,-1,-1,-1,-1,-1,-1,-1,-1,-1],"split_conditions":[7.0997095E-3,1.6195083E-2,1.2810164E-2,3.8151518E-2,2.7496554E-2,1.9416642E-1,3.8462937E-2,2.475328E-3,-1.0805851E-1,5.634004E-2,4.8771906E-3,1.2634633E-1,4.0657364E-2,2.908433E-2,6.9952555E-2,-5.2723505E-2,1.1020308E-1,-2.6125146E-2,7.102423E-2,-1.6195033E-2,-7.5239755E-2,1.4951435E-3,6.71818E-2,-4.8060756E-2,3.8626768E-2,8.345464E-2,1.719836E-1,-3.2292496E-2,7.075417E-2],"split_indices":[62,6,12,50,6,3,56,12,0,30,26,38,28,45,17,0,0,0,0,0,0,0,0,0,0,0,0,0,0],"split_type":[0,0,0,0,0,0,0,0,0,0,0,0,0,0,0,0,0,0,0,0,0,0,0,0,0,0,0,0,0],"sum_hessian":[9.63364E2,3.48803E2,6.1456104E2,2.9730976E1,3.1907205E2,4.891342E2,1.2542683E2,2.8047712E1,1.6832625E0,1.2969714E2,1.8937491E2,2.6282907E2,2.2630511E2,6.160912E1,6.381771E1,1.2426617E0,2.6805052E1,1.0946658E2,2.0230562E1,4.2408066E1,1.4696683E2,1.6817014E2,9.465894E1,1.7057254E2,5.573257E1,4.671486E1,1.48942585E1,3.6531147E1,2.7286562E1],"tree_param":{"num_deleted":"0","num_feature":"64","num_nodes":"29","size_leaf_vector":"1"}},{"base_weights":[7.3708287E-3,-3.2008824E-1,1.5788628E-1,4.9455285E-1,-4.1291377E-1,5.132148E-1,-2.6331473E-2,2.2895451E-1,1.2937671E0,5.1194817E-1,-4.9076524E-1,3.5008317E-1,1.0149794E0,-2.0819263E-1,5.504088E-1,8.501305E-2,-1.3450484E-2,1.6321145E-3,1.8442349E-1,1.0073932E-1,-2.3089578E-2,1.0303619E-1,-5.3400572E-2,4.7911074E-2,-4.9621206E-2,1.08436905E-1,-2.9574046E-2,-4.8380427E-2,9.504106E-3,1.2732117E-1,3.0780746E-2],"categories":[],"categories_nodes":[],"categories_segments":[],"categories_sizes":[],"default_left":[0,0,0,0,0,0,0,0,0,0,0,0,0,0,0,0,0,0,0,0,0,0,0,0,0,0,0,0,0,0,0],"id":27,"left_children":[1,3,5,7,9,11,13,15,17,19,21,23,25,27,29,-1,-1,-1,-1,-1,-1,-1,-1,-1,-1,-1,-1,-1,-1,-1,-1],"loss_changes":[4.737676E1,2.309432E1,4.3117695E1,6.373008E0,1.9856102E1,1.8052097E1,4.5700535E1,5.712775E0,5.329483E0,8.193154E0,1.7102512E1,1.8935705E1,5.290966E0,2.7722086E1,1.7926712E1,0E0,0E0,0E0,0E0,0E0,0E0,0E0,0E0,0E0,0E0,0E0,0E0,0E0,0E0,0E0,0E0],"parents":[2147483647,0,0,1,1,2,2,3,3,4,4,5,5,6,6,7,7,8,8,9,9,10,10,11,11,12,12,13,13,14,14],"right_children":[2,4,6,8,10,12,14,16,18,20,22,24,26,28,30,-1,-1,-1,-1,-1,-1,-1,-1,-1,-1,-1,-1,-1,-1,-1,-1],"split_conditions":[2.2181718E-2,5.196445E-2,7.665799E-2,2.4377342E-2,4.8176284E-4,2.0402268E-2,2.1612508E-2,4.296389E-2,9.194117E-3,2.8905574E-2,6.1253015E-2,1.3416984E-2,1.2700717E-1,3.006274E-2,9.056368E-2,8.501305E-2,-1.3450484E-2,1.6321145E-3,1.8442349E-1,1.0073932E-1,-2.3089578E-2,1.0303619E-1,-5.3400572E-2,4.7911074E-2,-4.9621206E-2,1.08436905E-1,-2.9574046E-2,-4.8380427E-2,9.504106E-3,1.2732117E-1,3.0780746E-2],"split_indices":[7,36,36,43,10,28,23,17,61,6,48,47,42,20,48,0,0,0,0,0,0,0,0,0,0,0,0,0,0,0,0],"split_type":[0,0,0,0,0,0,0,0,0,0,0,0,0,0,0,0,0,0,0,0,0,0,0,0,0,0,0,0,0,0,0],"sum_hessian":[9.592044E2,3.0170126E2,6.575032E2,3.0418585E1,2.7128268E2,2.2388211E2,4.3362103E2,2.3796803E1,6.621783E0,2.062968E1,2.50653E2,1.7023402E2,5.3648094E1,3.3015396E2,1.0346709E2,8.289871E0,1.5506931E1,2.3041935E0,4.3175893E0,1.2162011E1,8.4676695E0,6.2972646E0,2.4435573E2,1.4808987E2,2.214415E1,5.1114758E1,2.5333352E0,1.7264238E2,1.5751158E2,2.4933224E1,7.853387E1],"tree_param":{"num_deleted":"0","num_feature":"64","num_nodes":"31","size_leaf_vector":"1"}},{"base_weights":[-1.1451031E-2,-3.8063344E-1,1.075788E-1,3.9832997E-1,-4.6734107E-1,3.2404146E-1,-1.2822945E-1,-8.2109444E-2,1.0118514E0,4.7210997E-1,-5.495451E-1,1.4180492E-1,9.18188E-1,-3.2808352E-1,4.1202375E-1,6.798177E-2,-7.570452E-2,1.3595669E-1,-8.275871E-2,-6.328826E-2,9.9662E-2,8.15623E-2,-5.8459457E-2,6.507749E-2,7.3380815E-4,-4.977187E-2,9.732137E-2,1.9768454E-2,-5.0290156E-2,8.593776E-2,-7.4407915E-3],"categories":[],"categories_nodes":[],"categories_segments":[],"categories_sizes":[],"default_left":[0,0,0,0,0,0,0,0,0,0,0,0,0,0,0,0,0,0,0,0,0,0,0,0,0,0,0,0,0,0,0],"id":28,"left_children":[1,3,5,7,9,11,13,15,17,19,21,23,25,27,29,-1,-1,-1,-1,-1,-1,-1,-1,-1,-1,-1,-1,-1,-1,-1,-1],"loss_changes":[4.0934135E1,1.5525162E1,3.6000694E1,6.9471645E0,1.6076702E1,3.9670605E1,3.6617626E1,7.7064176E0,7.714409E0,1.049387E1,9.510502E0,1.932869E1,7.192528E0,2.2820864E1,2.0015186E1,0E0,0E0,0E0,0E0,0E0,0E0,0E0,0E0,0E0,0E0,0E0,0E0,0E0,0E0,0E0,0E0],"parents":[2147483647,0,0,1,1,2,2,3,3,4,4,5,5,6,6,7,7,8,8,9,9,10,10,11,11,12,12,13,13,14,14],"right_children":[2,4,6,8,10,12,14,16,18,20,22,24,26,28,30,-1,-1,-1,-1,-1,-1,-1,-1,-1,-1,-1,-1,-1,-1,-1,-1],"split_conditions":[2.0623587E-2,5.1204152E-2,8.4598996E-2,4.0948577E-2,1.9261533E-2,2.0689908E-2,4.8592333E-2,5.6928974E-3,2.4265315E-2,2.1251084E-2,2.430913E-4,4.9376674E-3,8.630942E-2,2.5389876E-2,1.6096653E-1,6.798177E-2,-7.570452E-2,1.3595669E-1,-8.275871E-2,-6.328826E-2,9.9662E-2,8.15623E-2,-5.8459457E-2,6.507749E-2,7.3380815E-4,-4.977187E-2,9.732137E-2,1.9768454E-2,-5.0290156E-2,8.593776E-2,-7.4407915E-3],"split_indices":[7,36,36,46,6,28,15,47,62,15,10,26,13,6,5,0,0,0,0,0,0,0,0,0,0,0,0,0,0,0,0],"split_type":[0,0,0,0,0,0,0,0,0,0,0,0,0,0,0,0,0,0,0,0,0,0,0,0,0,0,0,0,0,0,0],"sum_hessian":[9.29581E2,2.2610303E2,7.0347797E2,2.2287027E1,2.03816E2,3.6658932E2,3.3688867E2,1.2984908E1,9.302119E0,1.6017725E1,1.8779828E2,2.8148956E2,8.509976E1,2.4620398E2,9.0684685E1,6.095987E0,6.8889213E0,8.0426655E0,1.2594539E0,5.0893354E0,1.092839E1,4.1433935E0,1.8365488E2,5.802388E1,2.2346567E2,2.8825111E0,8.221725E1,6.1402924E1,1.8480106E2,4.6840473E1,4.384421E1],"tree_param":{"num_deleted":"0","num_feature":"64","num_nodes":"31","size_leaf_vector":"1"}},{"base_weights":[2.8131831E-2,-3.4837997E-1,1.4339705E-1,-4.0664738E-1,1.0921568E0,5.252173E-1,-2.3300206E-2,4.154518E-1,-4.9627408E-1,1.8212748E0,-1.9808228E-1,2.7294248E-1,8.5235626E-1,-1.393463E-1,5.899705E-1,-1.5292344E-2,1.1504879E-1,-5.6216795E-2,8.189309E-2,7.006943E-2,2.2361313E-1,-8.747613E-2,6.9820024E-2,-4.804857E-4,7.26149E-2,1.01087324E-1,5.8895983E-3,3.0493185E-2,-4.2157255E-2,-4.33939E-2,8.083302E-2],"categories":[],"categories_nodes":[],"categories_segments":[],"categories_sizes":[],"default_left":[0,0,0,0,0,0,0,0,0,0,0,0,0,0,0,0,0,0,0,0,0,0,0,0,0,0,0,0,0,0,0],"id":29,"left_children":[1,3,5,7,9,11,13,15,17,19,21,23,25,27,29,-1,-1,-1,-1,-1,-1,-1,-1,-1,-1,-1,-1,-1,-1,-1,-1],"loss_changes":[3.9915478E1,1.8540379E1,4.4820244E1,1.5527771E1,8.500738E0,1.7427681E1,3.5025776E1,8.943373E0,1.674939E1,1.0488739E0,3.0525796E0,1.5397006E1,1.1599876E1,5.1999336E1,1.786106E1,0E0,0E0,0E0,0E0,0E0,0E0,0E0,0E0,0E0,0E0,0E0,0E0,0E0,0E0,0E0,0E0],"parents":[2147483647,0,0,1,1,2,2,3,3,4,4,5,5,6,6,7,7,8,8,9,9,10,10,11,11,12,12,13,13,14,14],"right_children":[2,4,6,8,10,12,14,16,18,20,22,24,26,28,30,-1,-1,-1,-1,-1,-1,-1,-1,-1,-1,-1,-1,-1,-1,-1,-1],"split_conditions":[3.3808541E-3,7.916031E-2,6.921685E-3,6.049537E-2,9.556643E-3,1.9630797E-2,2.1497693E-2,1.1239761E-2,6.24767E-3,2.553964E-2,2.164074E-1,1.0783745E-2,1.1635006E-1,2.7009735E-2,1.28025375E-2,-1.5292344E-2,1.1504879E-1,-5.6216795E-2,8.189309E-2,7.006943E-2,2.2361313E-1,-8.747613E-2,6.9820024E-2,-4.804857E-4,7.26149E-2,1.01087324E-1,5.8895983E-3,3.0493185E-2,-4.2157255E-2,-4.33939E-2,8.083302E-2],"split_indices":[23,18,26,19,47,43,62,28,14,15,21,12,34,6,43,0,0,0,0,0,0,0,0,0,0,0,0,0,0,0,0],"split_type":[0,0,0,0,0,0,0,0,0,0,0,0,0,0,0,0,0,0,0,0,0,0,0,0,0,0,0,0,0,0,0],"sum_hessian":[9.1758765E2,2.1459486E2,7.029928E2,2.069421E2,7.652769E0,2.1298946E2,4.9000333E2,1.9985954E1,1.8695615E2,4.6266537E0,3.0261157E0,1.2129022E2,9.169923E1,4.126857E2,7.7317635E1,1.1717339E1,8.268617E0,1.785815E2,8.37465E0,1.9766024E0,2.6500514E0,1.73798E0,1.2881355E0,7.5815895E1,4.5474323E1,7.6201706E1,1.5497525E1,1.6028535E2,2.5240033E2,1.3416957E1,6.3900677E1],"tree_param":{"num_deleted":"0","num_feature":"64","num_nodes":"31","size_leaf_vector":"1"}},{"base_weights":[1.5884645E-2,-3.3740005E-1,1.23720795E-1,-4.6692955E-1,5.5089813E-1,3.9385793E-1,-4.7823697E-2,8.641545E-2,-5.976555E-1,1.3094692E0,-2.8809813E-1,1.4414349E-1,9.1218597E-1,-4.1793486E-1,1.382547E-1,8.784979E-2,-6.391903E-2,-7.2106116E-2,2.579589E-3,-1.9815577E-2,1.5072535E-1,-5.81756E-2,7.371924E-2,-1.3221716E-2,5.6904174E-2,1.1440901E-1,3.4646146E-2,9.357368E-2,-4.9337253E-2,5.8904953E-2,-7.3472993E-3],"categories":[],"categories_nodes":[],"categories_segments":[],"categories_sizes":[],"default_left":[0,0,0,0,0,0,0,0,0,0,0,0,0,0,0,0,0,0,0,0,0,0,0,0,0,0,0,0,0,0,0],"id":30,"left_children":[1,3,5,7,9,11,13,15,17,19,21,23,25,27,29,-1,-1,-1,-1,-1,-1,-1,-1,-1,-1,-1,-1,-1,-1,-1,-1],"loss_changes":[3.5219345E1,2.5133968E1,3.28357E1,1.3740028E1,1.8180458E1,3.548269E1,2.9948227E1,2.1847515E1,1.1805111E1,4.7329845E0,4.674803E0,2.2019648E1,1.1315704E1,1.5314928E1,2.7680773E1,0E0,0E0,0E0,0E0,0E0,0E0,0E0,0E0,0E0,0E0,0E0,0E0,0E0,0E0,0E0,0E0],"parents":[2147483647,0,0,1,1,2,2,3,3,4,4,5,5,6,6,7,7,8,8,9,9,10,10,11,11,12,12,13,13,14,14],"right_children":[2,4,6,8,10,12,14,16,18,20,22,24,26,28,30,-1,-1,-1,-1,-1,-1,-1,-1,-1,-1,-1,-1,-1,-1,-1,-1],"split_conditions":[5.3584073E-3,5.9864946E-2,7.681273E-2,4.3487707E-3,7.579489E-2,8.761324E-3,1.8232334E-2,1.2432099E-3,2.191952E-2,2.0277278E-2,4.9096383E-3,9.062061E-3,1.115271E-1,1.5820952E-1,1.5540566E-1,8.784979E-2,-6.391903E-2,-7.2106116E-2,2.579589E-3,-1.9815577E-2,1.5072535E-1,-5.81756E-2,7.371924E-2,-1.3221716E-2,5.6904174E-2,1.1440901E-1,3.4646146E-2,9.357368E-2,-4.9337253E-2,5.8904953E-2,-7.3472993E-3],"split_indices":[62,30,36,26,34,12,28,10,43,7,62,23,57,53,31,0,0,0,0,0,0,0,0,0,0,0,0,0,0,0,0],"split_type":[0,0,0,0,0,0,0,0,0,0,0,0,0,0,0,0,0,0,0,0,0,0,0,0,0,0,0,0,0,0,0],"sum_hessian":[9.2237274E2,2.1520511E2,7.071676E2,1.8823193E2,2.6973179E1,2.7415314E2,4.330145E2,3.6035885E1,1.5219604E2,1.3871041E1,1.3102137E1,1.8587999E2,8.827314E1,1.4445216E2,2.8856232E2,1.7127995E1,1.8907892E1,1.2691749E2,2.5278551E1,1.6084723E0,1.2262569E1,1.0521285E1,2.5808523E0,1.130435E2,7.283649E1,6.1883327E1,2.6389814E1,7.023141E0,1.3742903E2,9.164868E1,1.9691365E2],"tree_param":{"num_deleted":"0","num_feature":"64","num_nodes":"31","size_leaf_vector":"1"}},{"base_weights":[-4.103155E-3,4.8653033E-1,-7.217554E-2,1.14709854E-1,8.724269E-1,-1.9817519E-1,1.873399E-1,5.840001E-1,-2.8529558E-1,9.3358266E-1,-7.711869E-2,3.330044E-2,-4.23254E-1,3.491081E-1,-3.866362E-1,-7.1743727E-3,1.2283281E-1,2.5858482E-2,-5.689592E-2,1.1096408E-1,3.780358E-2,-6.2924395E-3,8.25181E-2,4.5278493E-2,-4.943858E-2,1.4948738E-2,7.706077E-2,-8.029443E-2,5.217054E-2],"categories":[],"categories_nodes":[],"categories_segments":[],"categories_sizes":[],"default_left":[0,0,0,0,0,0,0,0,0,0,0,0,0,0,0,0,0,0,0,0,0,0,0,0,0,0,0,0,0],"id":31,"left_children":[1,3,5,7,9,11,13,15,17,19,-1,21,23,25,27,-1,-1,-1,-1,-1,-1,-1,-1,-1,-1,-1,-1,-1,-1],"loss_changes":[3.029221E1,1.5756123E1,2.6079508E1,1.0947667E1,6.1555214E0,2.797192E1,2.4351955E1,1.1392682E1,5.03415E0,4.724144E0,0E0,2.028079E1,1.7182053E1,1.7048973E1,2.228352E1,0E0,0E0,0E0,0E0,0E0,0E0,0E0,0E0,0E0,0E0,0E0,0E0,0E0,0E0],"parents":[2147483647,0,0,1,1,2,2,3,3,4,4,5,5,6,6,7,7,8,8,9,9,11,11,12,12,13,13,14,14],"right_children":[2,4,6,8,10,12,14,16,18,20,-1,22,24,26,28,-1,-1,-1,-1,-1,-1,-1,-1,-1,-1,-1,-1,-1,-1],"split_conditions":[4.4236513E-5,2.4341086E-2,5.3223792E-2,7.277065E-2,2.0107694E-1,6.861343E-2,1.2288348E-1,4.2816456E-3,3.0730039E-2,2.3931634E-2,-7.711869E-2,5.84997E-2,1.1318705E-1,7.3435545E-2,2.4592538E-1,-7.1743727E-3,1.2283281E-1,2.5858482E-2,-5.689592E-2,1.1096408E-1,3.780358E-2,-6.2924395E-3,8.25181E-2,4.5278493E-2,-4.943858E-2,1.4948738E-2,7.706077E-2,-8.029443E-2,5.217054E-2],"split_indices":[14,20,46,57,54,34,36,23,41,61,0,30,31,46,52,0,0,0,0,0,0,0,0,0,0,0,0,0,0],"split_type":[0,0,0,0,0,0,0,0,0,0,0,0,0,0,0,0,0,0,0,0,0,0,0,0,0,0,0,0,0],"sum_hessian":[9.0493933E2,1.0950828E2,7.95431E2,5.6431984E1,5.3076294E1,5.356158E2,2.5981525E2,2.5755455E1,3.0676529E1,5.1588768E1,1.4875252E0,2.6447568E2,2.711401E2,2.0299527E2,5.6819977E1,1.3205075E1,1.2550381E1,1.0545534E1,2.0130995E1,3.8416744E1,1.3172025E1,2.3664096E2,2.7834728E1,1.9959475E1,2.5118063E2,1.3867427E2,6.432099E1,3.9042282E1,1.7777695E1],"tree_param":{"num_deleted":"0","num_feature":"64","num_nodes":"29","size_leaf_vector":"1"}},{"base_weights":[-5.807191E-4,4.573677E-1,-8.0017924E-2,2.5459832E-1,8.7161154E-1,-3.8960618E-1,9.62134E-2,5.8554683E-2,8.264103E-1,9.3853754E-1,-6.381246E-2,-4.5549262E-1,6.829288E-1,4.207289E-1,-1.23338945E-1,4.7414143E-2,-2.2867851E-2,1.0627009E-1,1.2909694E-3,1.1880819E-1,5.582109E-2,-2.1159261E-2,-6.7808196E-2,2.37083E-1,5.9457566E-3,7.468026E-2,1.226136E-2,-2.6731526E-2,6.308928E-2],"categories":[],"categories_nodes":[],"categories_segments":[],"categories_sizes":[],"default_left":[0,0,0,0,0,0,0,0,0,0,0,0,0,0,0,0,0,0,0,0,0,0,0,0,0,0,0,0,0],"id":32,"left_children":[1,3,5,7,9,11,13,15,17,19,-1,21,23,25,27,-1,-1,-1,-1,-1,-1,-1,-1,-1,-1,-1,-1,-1,-1],"loss_changes":[3.2192352E1,1.0765852E1,4.11815E1,9.955025E0,4.900856E0,1.9656086E1,3.4348106E1,8.169439E0,4.3510733E0,3.2445526E0,0E0,1.3890957E1,1.6953259E1,1.8812893E1,3.1430819E1,0E0,0E0,0E0,0E0,0E0,0E0,0E0,0E0,0E0,0E0,0E0,0E0,0E0,0E0],"parents":[2147483647,0,0,1,1,2,2,3,3,4,4,5,5,6,6,7,7,8,8,9,9,11,11,12,12,13,13,14,14],"right_children":[2,4,6,8,10,12,14,16,18,20,-1,22,24,26,28,-1,-1,-1,-1,-1,-1,-1,-1,-1,-1,-1,-1,-1,-1],"split_conditions":[4.6166442E-2,1.0414359E-1,2.4604615E-2,2.1306485E-2,2.4416488E-1,6.24767E-3,8.498898E-2,5.9913127E-3,1.7045264E-1,1.0227163E-1,-6.381246E-2,1.4533644E-3,1.6071811E-1,3.741906E-2,5.2349936E-2,4.7414143E-2,-2.2867851E-2,1.0627009E-1,1.2909694E-3,1.1880819E-1,5.582109E-2,-2.1159261E-2,-6.7808196E-2,2.37083E-1,5.9457566E-3,7.468026E-2,1.226136E-2,-2.6731526E-2,6.308928E-2],"split_indices":[34,38,15,43,31,14,36,26,22,57,0,27,1,63,20,0,0,0,0,0,0,0,0,0,0,0,0,0,0],"split_type":[0,0,0,0,0,0,0,0,0,0,0,0,0,0,0,0,0,0,0,0,0,0,0,0,0,0,0,0,0],"sum_hessian":[8.829306E2,1.2981296E2,7.531177E2,8.823646E1,4.1576496E1,2.7275467E2,4.80363E2,6.652947E1,2.1706984E1,4.0173946E1,1.4025512E0,2.5751093E2,1.5243734E1,1.9347523E2,2.868878E2,2.6923773E1,3.9605698E1,1.6583723E1,5.1232624E0,2.2975286E1,1.719866E1,1.2380425E2,1.3370668E2,3.3558722E0,1.1887862E1,9.168575E1,1.0178948E2,2.4144382E2,4.544396E1],"tree_param":{"num_deleted":"0","num_feature":"64","num_nodes":"29","size_leaf_vector":"1"}},{"base_weights":[5.3811073E-3,-9.4340146E-2,3.9566287E-1,2.8586966E-1,-1.8892851E-1,8.7571573E-1,1.0396582E-1,-1.3459915E-1,5.8857745E-1,-2.5655225E-1,5.693121E-1,1.2251896E0,4.289845E-1,-6.340143E-2,1.077725E0,5.006444E-2,-4.6189975E-2,8.5964434E-2,-2.5930194E-2,1.3703244E-2,-3.6852747E-2,-4.6058644E-2,7.597599E-2,1.3014543E-2,1.397751E-1,-5.867538E-3,1.1672417E-1,-6.2463935E-2,1.8062761E-2,1.220693E-1,1.4875235E-2],"categories":[],"categories_nodes":[],"categories_segments":[],"categories_sizes":[],"default_left":[0,0,0,0,0,0,0,0,0,0,0,0,0,0,0,0,0,0,0,0,0,0,0,0,0,0,0,0,0,0,0],"id":33,"left_children":[1,3,5,7,9,11,13,15,17,19,21,23,25,27,29,-1,-1,-1,-1,-1,-1,-1,-1,-1,-1,-1,-1,-1,-1,-1,-1],"loss_changes":[3.4321224E1,2.531581E1,2.5039413E1,1.7940908E1,2.9018822E1,1.0043381E1,1.8446661E1,1.2613719E1,1.901844E1,2.2865433E1,9.454503E0,6.893692E0,1.1320066E1,1.3421414E1,2.0224552E0,0E0,0E0,0E0,0E0,0E0,0E0,0E0,0E0,0E0,0E0,0E0,0E0,0E0,0E0,0E0,0E0],"parents":[2147483647,0,0,1,1,2,2,3,3,4,4,5,5,6,6,7,7,8,8,9,9,10,10,11,11,12,12,13,13,14,14],"right_children":[2,4,6,8,10,12,14,16,18,20,22,24,26,28,30,-1,-1,-1,-1,-1,-1,-1,-1,-1,-1,-1,-1,-1,-1,-1,-1],"split_conditions":[1.2694215E-2,6.26053E-2,8.3866894E-2,1.6975291E-2,2.7627993E-2,8.265297E-2,4.13803E-2,4.0558126E-2,1.900524E-1,2.296459E-2,5.469517E-2,3.0059179E-3,2.3658128E-2,4.116072E-3,8.178662E-3,5.006444E-2,-4.6189975E-2,8.5964434E-2,-2.5930194E-2,1.3703244E-2,-3.6852747E-2,-4.6058644E-2,7.597599E-2,1.3014543E-2,1.397751E-1,-5.867538E-3,1.1672417E-1,-6.2463935E-2,1.8062761E-2,1.220693E-1,1.4875235E-2],"split_indices":[12,36,36,15,62,19,11,34,3,6,49,62,11,23,27,0,0,0,0,0,0,0,0,0,0,0,0,0,0,0,0],"split_type":[0,0,0,0,0,0,0,0,0,0,0,0,0,0,0,0,0,0,0,0,0,0,0,0,0,0,0,0,0,0,0],"sum_hessian":[8.7989514E2,7.014303E2,1.7846483E2,1.3933472E2,5.620956E2,6.669731E1,1.1176752E2,5.8555283E1,8.0779434E1,5.166773E2,4.5418262E1,3.644452E1,3.0252789E1,9.6172516E1,1.5594996E1,1.9730871E1,3.8824413E1,6.1199944E1,1.9579489E1,1.14388016E2,4.022893E2,6.8666325E0,3.855163E1,5.2000585E0,3.1244461E1,1.877282E1,1.1479969E1,2.8671581E1,6.750094E1,1.3242903E1,2.3520937E0],"tree_param":{"num_deleted":"0","num_feature":"64","num_nodes":"31","size_leaf_vector":"1"}},{"base_weights":[3.7893408E-3,4.8064813E-1,-6.027155E-2,8.079122E-2,9.9709105E-1,-2.7562773E-1,1.7562278E-1,-2.2805697E-1,7.813763E-1,1.2825735E0,3.512005E-1,-7.558102E-2,-5.7082784E-1,6.4754903E-1,-4.6388984E-2,-6.318783E-2,3.20529E-2,-4.0873364E-2,9.378037E-2,2.9468184E-2,1.526967E-1,1.1270187E-1,-1.7773855E-2,-2.7064804E-2,3.7563283E-2,1.6761069E-1,-5.977577E-2,3.716273E-2,1.1692647E-1,-2.1647884E-2,5.2467447E-2],"categories":[],"categories_nodes":[],"categories_segments":[],"categories_sizes":[],"default_left":[0,0,0,0,0,0,0,0,0,0,0,0,0,0,0,0,0,0,0,0,0,0,0,0,0,0,0,0,0,0,0],"id":34,"left_children":[1,3,5,7,9,11,13,15,17,19,21,23,25,27,29,-1,-1,-1,-1,-1,-1,-1,-1,-1,-1,-1,-1,-1,-1,-1,-1],"loss_changes":[2.6441023E1,2.1087397E1,3.8814964E1,1.2914588E1,7.7814636E0,2.3537394E1,3.8250854E1,9.424206E0,3.7781725E0,6.933735E0,6.380847E0,2.1152279E1,1.0752449E1,1.6375698E1,2.430139E1,0E0,0E0,0E0,0E0,0E0,0E0,0E0,0E0,0E0,0E0,0E0,0E0,0E0,0E0,0E0,0E0],"parents":[2147483647,0,0,1,1,2,2,3,3,4,4,5,5,6,6,7,7,8,8,9,9,10,10,11,11,12,12,13,13,14,14],"right_children":[2,4,6,8,10,12,14,16,18,20,22,24,26,28,30,-1,-1,-1,-1,-1,-1,-1,-1,-1,-1,-1,-1,-1,-1,-1,-1],"split_conditions":[7.277065E-2,9.271938E-2,2.988789E-2,4.2816456E-3,7.127612E-3,7.325912E-2,1.424481E-1,1.7430285E-2,4.9170442E-2,6.9846E-3,8.007944E-2,1.13949455E-1,3.482145E-2,3.6327057E-2,4.798932E-2,-6.318783E-2,3.20529E-2,-4.0873364E-2,9.378037E-2,2.9468184E-2,1.526967E-1,1.1270187E-1,-1.7773855E-2,-2.7064804E-2,3.7563283E-2,1.6761069E-1,-5.977577E-2,3.716273E-2,1.1692647E-1,-2.1647884E-2,5.2467447E-2],"split_indices":[57,38,15,23,59,34,25,20,18,28,5,38,35,29,20,0,0,0,0,0,0,0,0,0,0,0,0,0,0,0,0],"split_type":[0,0,0,0,0,0,0,0,0,0,0,0,0,0,0,0,0,0,0,0,0,0,0,0,0,0,0,0,0,0,0],"sum_hessian":[8.636083E2,1.0150662E2,7.621017E2,5.7862732E1,4.364389E1,3.9830585E2,3.637958E2,4.062705E1,1.7235683E1,2.9582666E1,1.4061224E1,2.381655E2,1.6014035E2,1.15776054E2,2.4801976E2,2.3313698E1,1.731335E1,1.8148971E0,1.5420786E1,6.304455E0,2.3278212E1,5.2419333E0,8.819291E0,1.6655937E2,7.1606125E1,1.1713024E0,1.5896906E2,7.6846344E1,3.892971E1,1.9157927E2,5.644049E1],"tree_param":{"num_deleted":"0","num_feature":"64","num_nodes":"31","size_leaf_vector":"1"}},{"base_weights":[-5.9427964E-3,-1.3772142E-1,2.2835538E-1,4.235692E-2,-3.5198754E-1,7.50821E-1,8.276451E-2,-1.044038E-1,8.285001E-1,-5.201133E-1,9.803596E-2,4.5302442E-1,1.1658628E0,-1.2205066E-1,4.723887E-1,1.5531267E-2,-3.8585156E-2,1.2663774E-1,1.7207844E-2,1.2659535E-2,-6.2288728E-2,5.6459334E-2,-3.1149654E-2,5.566215E-2,-1.0234741E-1,1.2903473E-1,-4.0283665E-2,1.7257562E-3,-7.028913E-2,6.673372E-2,-2.2978729E-2],"categories":[],"categories_nodes":[],"categories_segments":[],"categories_sizes":[],"default_left":[0,0,0,0,0,0,0,0,0,0,0,0,0,0,0,0,0,0,0,0,0,0,0,0,0,0,0,0,0,0,0],"id":35,"left_children":[1,3,5,7,9,11,13,15,17,19,21,23,25,27,29,-1,-1,-1,-1,-1,-1,-1,-1,-1,-1,-1,-1,-1,-1,-1,-1],"loss_changes":[2.6824532E1,2.1468891E1,2.3727951E1,3.5045856E1,1.9270039E1,7.8808784E0,1.9666311E1,1.8789242E1,1.3515499E1,1.2380638E1,1.353733E1,6.879078E0,5.946018E0,1.3108456E1,1.1770826E1,0E0,0E0,0E0,0E0,0E0,0E0,0E0,0E0,0E0,0E0,0E0,0E0,0E0,0E0,0E0,0E0],"parents":[2147483647,0,0,1,1,2,2,3,3,4,4,5,5,6,6,7,7,8,8,9,9,10,10,11,11,12,12,13,13,14,14],"right_children":[2,4,6,8,10,12,14,16,18,20,22,24,26,28,30,-1,-1,-1,-1,-1,-1,-1,-1,-1,-1,-1,-1,-1,-1,-1,-1],"split_conditions":[7.411097E-2,7.325912E-2,1.0478554E-1,5.4989822E-2,3.760953E-2,2.9154656E-2,4.8592333E-2,7.1937228E-3,1.08493224E-1,1.7557766E-1,1.1323683E-1,9.452926E-2,1.4326823E-1,1.1635006E-1,2.906738E-1,1.5531267E-2,-3.8585156E-2,1.2663774E-1,1.7207844E-2,1.2659535E-2,-6.2288728E-2,5.6459334E-2,-3.1149654E-2,5.566215E-2,-1.0234741E-1,1.2903473E-1,-4.0283665E-2,1.7257562E-3,-7.028913E-2,6.673372E-2,-2.2978729E-2],"split_indices":[18,34,57,30,15,15,15,26,57,51,34,19,9,34,25,0,0,0,0,0,0,0,0,0,0,0,0,0,0,0,0],"split_type":[0,0,0,0,0,0,0,0,0,0,0,0,0,0,0,0,0,0,0,0,0,0,0,0,0,0,0,0,0,0,0],"sum_hessian":[8.667783E2,5.550233E2,3.11755E2,3.020065E2,2.5301678E2,6.703543E1,2.4471957E2,2.5522682E2,4.677969E1,1.8408727E2,6.892953E1,4.0248356E1,2.6787075E1,1.6085114E2,8.386845E1,1.3297101E2,1.2225582E2,2.750368E1,1.927601E1,2.5211456E1,1.5887581E2,3.2044453E1,3.688507E1,3.8191685E1,2.0566707E0,2.4982061E1,1.8050137E0,1.305181E2,3.0333036E1,6.568236E1,1.818609E1],"tree_param":{"num_deleted":"0","num_feature":"64","num_nodes":"31","size_leaf_vector":"1"}},{"base_weights":[2.2203341E-2,-5.7813708E-2,4.036149E-1,4.178718E-1,-1.4404415E-1,9.7203517E-1,-2.1218134E-2,5.1180854E-2,9.423386E-1,2.4524723E-1,-2.4077012E-1,1.1518912E0,-2.410742E-1,-4.5600572E-1,3.9351282E-1,-3.0840177E-2,5.103746E-2,1.2566777E-1,2.72874E-2,-1.246698E-2,4.9620852E-2,-4.5993213E-2,-3.5577377E-3,1.446588E-1,7.952652E-2,-8.875834E-2,6.533092E-2,1.0528314E-1,-5.407321E-2,1.1202442E-1,5.7761045E-4],"categories":[],"categories_nodes":[],"categories_segments":[],"categories_sizes":[],"default_left":[0,0,0,0,0,0,0,0,0,0,0,0,0,0,0,0,0,0,0,0,0,0,0,0,0,0,0,0,0,0,0],"id":36,"left_children":[1,3,5,7,9,11,13,15,17,19,21,23,25,27,29,-1,-1,-1,-1,-1,-1,-1,-1,-1,-1,-1,-1,-1,-1,-1,-1],"loss_changes":[2.6019033E1,2.8975922E1,3.5719883E1,2.080575E1,2.2557932E1,1.4078403E1,1.5611343E1,1.0869289E1,9.0345E0,1.1147253E1,2.1528858E1,4.6570435E0,5.780387E0,5.969612E0,1.2486935E1,0E0,0E0,0E0,0E0,0E0,0E0,0E0,0E0,0E0,0E0,0E0,0E0,0E0,0E0,0E0,0E0],"parents":[2147483647,0,0,1,1,2,2,3,3,4,4,5,5,6,6,7,7,8,8,9,9,10,10,11,11,12,12,13,13,14,14],"right_children":[2,4,6,8,10,12,14,16,18,20,22,24,26,28,30,-1,-1,-1,-1,-1,-1,-1,-1,-1,-1,-1,-1,-1,-1,-1,-1],"split_conditions":[6.593749E-2,5.2557476E-3,1.0949486E-1,5.9702672E-2,4.7825812E-3,2.5207114E-1,5.460167E-2,1.7854687E-2,1.21197216E-1,3.658321E-2,4.4119548E-2,5.12445E-2,1.3880287E-2,4.6253137E-4,1.23131545E-2,-3.0840177E-2,5.103746E-2,1.2566777E-1,2.72874E-2,-1.246698E-2,4.9620852E-2,-4.5993213E-2,-3.5577377E-3,1.446588E-1,7.952652E-2,-8.875834E-2,6.533092E-2,1.0528314E-1,-5.407321E-2,1.1202442E-1,5.7761045E-4],"split_indices":[30,50,34,42,26,31,15,15,31,46,46,41,43,10,26,0,0,0,0,0,0,0,0,0,0,0,0,0,0,0,0],"split_type":[0,0,0,0,0,0,0,0,0,0,0,0,0,0,0,0,0,0,0,0,0,0,0,0,0,0,0,0,0,0,0],"sum_hessian":[8.5077545E2,7.0394244E2,1.46833E2,1.07435326E2,5.9650714E2,6.2252304E1,8.4580696E1,6.387411E1,4.3561214E1,1.1840979E2,4.7809735E2,5.4258396E1,7.993908E0,4.124331E1,4.3337383E1,3.6006638E1,2.7867474E1,2.9045916E1,1.4515297E1,4.806508E1,7.034471E1,2.3057916E2,2.4751819E2,2.8035244E1,2.6223152E1,4.6443334E0,3.3495746E0,1.585309E0,3.9658E1,1.4420321E1,2.891706E1],"tree_param":{"num_deleted":"0","num_feature":"64","num_nodes":"31","size_leaf_vector":"1"}},{"base_weights":[-8.183321E-3,3.6219254E-1,-8.700607E-2,3.215326E-2,6.070203E-1,-1.6288286E-1,4.036508E-1,5.424621E-1,-4.5903286E-1,1.0927655E0,2.8783554E-1,-6.1222482E-2,-5.202225E-1,-4.5409825E-1,6.3942814E-1,6.8139605E-2,-9.007207E-2,-5.6824744E-2,9.8328166E-2,3.5473496E-2,1.4516819E-1,-4.6682223E-3,1.195748E-1,-1.8783119E-2,4.7880735E-2,-6.764033E-2,-5.7349703E-3,1.0434786E-1,-7.141123E-2,-1.855809E-2,7.725775E-2],"categories":[],"categories_nodes":[],"categories_segments":[],"categories_sizes":[],"default_left":[0,0,0,0,0,0,0,0,0,0,0,0,0,0,0,0,0,0,0,0,0,0,0,0,0,0,0,0,0,0,0],"id":37,"left_children":[1,3,5,7,9,11,13,15,17,19,21,23,25,27,29,-1,-1,-1,-1,-1,-1,-1,-1,-1,-1,-1,-1,-1,-1,-1,-1],"loss_changes":[2.4514065E1,1.1886681E1,2.5838434E1,1.6243341E1,1.279262E1,2.1774033E1,1.9099253E1,6.9806547E0,5.7657447E0,8.270248E0,1.5962417E1,3.2118877E1,9.56258E0,8.781206E0,8.202627E0,0E0,0E0,0E0,0E0,0E0,0E0,0E0,0E0,0E0,0E0,0E0,0E0,0E0,0E0,0E0,0E0],"parents":[2147483647,0,0,1,1,2,2,3,3,4,4,5,5,6,6,7,7,8,8,9,9,10,10,11,11,12,12,13,13,14,14],"right_children":[2,4,6,8,10,12,14,16,18,20,22,24,26,28,30,-1,-1,-1,-1,-1,-1,-1,-1,-1,-1,-1,-1,-1,-1,-1,-1],"split_conditions":[4.7432543E-3,3.7070382E-2,2.1497693E-2,4.603448E-2,1.2863965E-1,5.2817192E-2,1.36758825E-2,2.283545E-2,9.018319E-2,5.1891427E-2,4.0289585E-2,5.84997E-2,3.760696E-3,5.8863213E-4,1.7872168E-2,6.8139605E-2,-9.007207E-2,-5.6824744E-2,9.8328166E-2,3.5473496E-2,1.4516819E-1,-4.6682223E-3,1.195748E-1,-1.8783119E-2,4.7880735E-2,-6.764033E-2,-5.7349703E-3,1.0434786E-1,-7.141123E-2,-1.855809E-2,7.725775E-2],"split_indices":[26,46,62,17,25,41,43,11,58,34,15,30,14,14,28,0,0,0,0,0,0,0,0,0,0,0,0,0,0,0,0],"split_type":[0,0,0,0,0,0,0,0,0,0,0,0,0,0,0,0,0,0,0,0,0,0,0,0,0,0,0,0,0,0,0],"sum_hessian":[8.376146E2,1.4634888E2,6.9126575E2,6.2809742E1,8.353914E1,5.992619E2,9.200381E1,3.075402E1,3.205572E1,3.2165337E1,5.1373802E1,4.674479E2,1.3181401E2,1.9637472E1,7.236633E1,2.8534847E1,2.2191734E0,3.0362627E1,1.693095E0,1.1174943E1,2.0990393E1,3.823486E1,1.3138944E1,3.7919803E2,8.8249886E1,9.821377E1,3.3600235E1,2.459363E0,1.717811E1,1.0001583E1,6.236475E1],"tree_param":{"num_deleted":"0","num_feature":"64","num_nodes":"31","size_leaf_vector":"1"}},{"base_weights":[1.6123865E-2,-1.09389424E-1,2.4166925E-1,6.895701E-2,-2.8081152E-1,-2.4011283E-1,4.1691205E-1,-2.1263576E-1,3.3585492E-1,-6.4507145E-1,-9.2973456E-2,7.616557E-1,-3.5778025E-1,9.8660177E-1,2.6012483E-1,7.291937E-2,-3.1208092E-2,7.965153E-2,1.0034329E-2,-7.8725986E-2,1.1478121E-2,8.968308E-2,-1.6550401E-2,1.0043837E-4,1.5333773E-1,-4.305477E-2,1.0898601E-1,3.5997373E-3,1.1650602E-1,-3.1129217E-2,4.528636E-2],"categories":[],"categories_nodes":[],"categories_segments":[],"categories_sizes":[],"default_left":[0,0,0,0,0,0,0,0,0,0,0,0,0,0,0,0,0,0,0,0,0,0,0,0,0,0,0,0,0,0,0],"id":38,"left_children":[1,3,5,7,9,11,13,15,17,19,21,23,25,27,29,-1,-1,-1,-1,-1,-1,-1,-1,-1,-1,-1,-1,-1,-1,-1,-1],"loss_changes":[2.3597462E1,1.6395021E1,2.5260065E1,1.9861444E1,1.86408E1,9.716473E0,1.9294079E1,1.2285757E1,1.4628591E1,1.0118923E1,1.3178148E1,5.1295676E0,8.093516E0,7.9111404E0,1.9194485E1,0E0,0E0,0E0,0E0,0E0,0E0,0E0,0E0,0E0,0E0,0E0,0E0,0E0,0E0,0E0,0E0],"parents":[2147483647,0,0,1,1,2,2,3,3,4,4,5,5,6,6,7,7,8,8,9,9,10,10,11,11,12,12,13,13,14,14],"right_children":[2,4,6,8,10,12,14,16,18,20,22,24,26,28,30,-1,-1,-1,-1,-1,-1,-1,-1,-1,-1,-1,-1,-1,-1,-1,-1],"split_conditions":[1.0041729E-2,9.56305E-2,1.0537329E-2,1.9542309E-2,2.3997905E-2,2.4462068E-2,7.2259754E-2,1.3503926E-1,6.750356E-2,2.6165098E-2,6.2792644E-2,5.657433E-2,1.2984097E-1,7.609797E-2,1.050038E-1,7.291937E-2,-3.1208092E-2,7.965153E-2,1.0034329E-2,-7.8725986E-2,1.1478121E-2,8.968308E-2,-1.6550401E-2,1.0043837E-4,1.5333773E-1,-4.305477E-2,1.0898601E-1,3.5997373E-3,1.1650602E-1,-3.1129217E-2,4.528636E-2],"split_indices":[12,21,43,15,20,46,36,53,36,23,40,30,49,13,13,0,0,0,0,0,0,0,0,0,0,0,0,0,0,0,0],"split_type":[0,0,0,0,0,0,0,0,0,0,0,0,0,0,0,0,0,0,0,0,0,0,0,0,0,0,0,0,0,0,0],"sum_hessian":[8.3163525E2,5.346333E2,2.9700198E2,2.6231754E2,2.7231573E2,7.911814E1,2.1788383E2,1.2774376E2,1.3457376E2,9.18207E1,1.8049504E2,7.7410765E0,7.137707E1,4.588113E1,1.720027E2,1.1595165E1,1.161486E2,4.4719814E1,8.985395E1,7.731665E1,1.4504046E1,1.1547307E1,1.6894774E2,4.4027677E0,3.3383088E0,6.862988E1,2.7471797E0,7.441862E0,3.8439266E1,4.3228138E1,1.2877457E2],"tree_param":{"num_deleted":"0","num_feature":"64","num_nodes":"31","size_leaf_vector":"1"}},{"base_weights":[3.2054076E-3,-8.237404E-2,2.793705E-1,1.603527E-1,-2.5982746E-1,6.6408867E-1,3.9043933E-2,-4.6402544E-1,2.754416E-1,-6.93127E-2,-5.0416964E-1,8.250164E-1,-8.081907E-2,-4.4092646E-1,4.2187962E-1,-5.652907E-2,5.3338993E-2,9.409506E-2,1.7736984E-2,-1.775563E-2,1.2856172E-1,5.5166673E-2,-5.6395598E-2,5.3665143E-2,1.4031951E-1,-7.031563E-2,4.677081E-2,-2.3256948E-3,-8.650478E-2,8.4117614E-2,1.2757668E-2],"categories":[],"categories_nodes":[],"categories_segments":[],"categories_sizes":[],"default_left":[0,0,0,0,0,0,0,0,0,0,0,0,0,0,0,0,0,0,0,0,0,0,0,0,0,0,0,0,0,0,0],"id":39,"left_children":[1,3,5,7,9,11,13,15,17,19,21,23,25,27,29,-1,-1,-1,-1,-1,-1,-1,-1,-1,-1,-1,-1,-1,-1,-1,-1],"loss_changes":[1.9292606E1,2.6885319E1,1.7829031E1,1.9085646E1,1.6741848E1,8.960171E0,2.2222258E1,4.4863787E0,1.4413057E1,3.0098064E1,1.0268013E1,9.433628E0,5.139082E0,9.492612E0,8.188172E0,0E0,0E0,0E0,0E0,0E0,0E0,0E0,0E0,0E0,0E0,0E0,0E0,0E0,0E0,0E0,0E0],"parents":[2147483647,0,0,1,1,2,2,3,3,4,4,5,5,6,6,7,7,8,8,9,9,10,10,11,11,12,12,13,13,14,14],"right_children":[2,4,6,8,10,12,14,16,18,20,22,24,26,28,30,-1,-1,-1,-1,-1,-1,-1,-1,-1,-1,-1,-1,-1,-1,-1,-1],"split_conditions":[3.6912717E-2,3.7372902E-2,4.593006E-2,1.3686647E-2,8.403933E-2,1.1252876E-1,2.7953284E-2,2.3248037E-3,2.5024926E-2,6.713319E-2,2.0216642E-2,1.4842871E-1,3.2633614E-2,1.5309449E-1,1.0161563E-2,-5.652907E-2,5.3338993E-2,9.409506E-2,1.7736984E-2,-1.775563E-2,1.2856172E-1,5.5166673E-2,-5.6395598E-2,5.3665143E-2,1.4031951E-1,-7.031563E-2,4.677081E-2,-2.3256948E-3,-8.650478E-2,8.4117614E-2,1.2757668E-2],"split_indices":[20,41,56,20,36,36,28,14,41,30,6,13,7,57,26,0,0,0,0,0,0,0,0,0,0,0,0,0,0,0,0],"split_type":[0,0,0,0,0,0,0,0,0,0,0,0,0,0,0,0,0,0,0,0,0,0,0,0,0,0,0,0,0,0,0],"sum_hessian":[8.143317E2,6.222175E2,1.9211421E2,2.6281995E2,3.5939758E2,7.318897E1,1.1892524E2,4.0432796E1,2.2238716E2,2.0266354E2,1.5673404E2,6.0098034E1,1.3090943E1,5.270099E1,6.622425E1,3.7099422E1,3.3333728E0,2.7458815E1,1.9492834E2,1.8847545E2,1.4188103E1,7.958491E0,1.4877554E2,4.1385372E1,1.871266E1,6.0007877E0,7.090155E0,2.7083916E1,2.5617075E1,2.654587E1,3.967838E1],"tree_param":{"num_deleted":"0","num_feature":"64","num_nodes":"31","size_leaf_vector":"1"}},{"base_weights":[3.6281925E-2,4.826238E-1,-1.913654E-2,-1.1772022E-1,8.646894E-1,-1.8210858E-1,1.6991206E-1,3.0744147E-1,-6.6633224E-1,1.2387358E0,4.530416E-1,-2.8608833E-2,-5.300236E-1,5.9884185E-1,-1.1048401E-2,-1.18899E-2,9.170851E-2,-9.7027384E-2,6.0024213E-2,3.3020787E-2,1.3803934E-1,-5.9450246E-2,7.2003E-2,7.920939E-2,-1.0543154E-2,-6.699707E-2,3.468121E-2,1.6739447E-2,8.863927E-2,3.428525E-2,-2.0057077E-2],"categories":[],"categories_nodes":[],"categories_segments":[],"categories_sizes":[],"default_left":[0,0,0,0,0,0,0,0,0,0,0,0,0,0,0,0,0,0,0,0,0,0,0,0,0,0,0,0,0,0,0],"id":40,"left_children":[1,3,5,7,9,11,13,15,17,19,21,23,25,27,29,-1,-1,-1,-1,-1,-1,-1,-1,-1,-1,-1,-1,-1,-1,-1,-1],"loss_changes":[2.0286888E1,2.0878407E1,2.2528008E1,8.626933E0,7.9803085E0,2.0952969E1,2.6286186E1,5.574263E0,6.772932E0,3.2105103E0,8.25519E0,1.732649E1,1.4974663E1,1.2316875E1,1.6105362E1,0E0,0E0,0E0,0E0,0E0,0E0,0E0,0E0,0E0,0E0,0E0,0E0,0E0,0E0,0E0,0E0],"parents":[2147483647,0,0,1,1,2,2,3,3,4,4,5,5,6,6,7,7,8,8,9,9,10,10,11,11,12,12,13,13,14,14],"right_children":[2,4,6,8,10,12,14,16,18,20,22,24,26,28,30,-1,-1,-1,-1,-1,-1,-1,-1,-1,-1,-1,-1,-1,-1,-1,-1],"split_conditions":[4.32114E-3,1.8065318E-2,3.0026313E-2,4.6166442E-2,1.5672104E-1,7.760846E-2,1.424481E-1,7.0136294E-2,2.5589336E-2,4.9461007E-2,4.5335542E-2,2.8284967E-3,5.21379E-3,7.7309244E-4,9.374085E-2,-1.18899E-2,9.170851E-2,-9.7027384E-2,6.0024213E-2,3.3020787E-2,1.3803934E-1,-5.9450246E-2,7.2003E-2,7.920939E-2,-1.0543154E-2,-6.699707E-2,3.468121E-2,1.6739447E-2,8.863927E-2,3.428525E-2,-2.0057077E-2],"split_indices":[50,15,15,34,0,34,25,13,20,24,8,26,14,27,36,0,0,0,0,0,0,0,0,0,0,0,0,0,0,0,0],"split_type":[0,0,0,0,0,0,0,0,0,0,0,0,0,0,0,0,0,0,0,0,0,0,0,0,0,0,0,0,0,0,0],"sum_hessian":[8.187767E2,8.95809E1,7.291958E2,3.510769E1,5.4473217E1,3.9162585E2,3.3756992E2,2.0026901E1,1.5080787E1,2.7487402E1,2.6985815E1,2.7248706E2,1.1913878E2,9.947515E1,2.3809477E2,1.2258892E1,7.768009E0,1.235087E1,2.7299163E0,4.157041E0,2.333036E1,5.23181E0,2.1754005E1,2.2526295E1,2.4996077E2,1.029443E2,1.619448E1,4.0416103E1,5.905905E1,8.275493E1,1.5533984E2],"tree_param":{"num_deleted":"0","num_feature":"64","num_nodes":"31","size_leaf_vector":"1"}},{"base_weights":[1.3897779E-2,4.190406E-1,-4.1176584E-2,-2.582711E-1,6.5335166E-1,-1.8870048E-1,1.548479E-1,-6.270012E-1,9.5758206E-1,4.5008653E-1,1.1931577E0,-2.280463E-2,-4.4815433E-1,4.8492575E-1,-2.8168658E-2,-8.5252926E-2,1.8891778E-2,1.2998393E-1,-1.5060647E-2,9.61874E-2,2.029381E-2,-4.223367E-2,1.3477562E-1,-1.2874739E-2,7.448878E-2,1.4009695E-1,-4.8245605E-2,6.752124E-2,-9.318866E-4,3.9751448E-2,-1.9864684E-2],"categories":[],"categories_nodes":[],"categories_segments":[],"categories_sizes":[],"default_left":[0,0,0,0,0,0,0,0,0,0,0,0,0,0,0,0,0,0,0,0,0,0,0,0,0,0,0,0,0,0,0],"id":41,"left_children":[1,3,5,7,9,11,13,15,17,19,21,23,25,27,29,-1,-1,-1,-1,-1,-1,-1,-1,-1,-1,-1,-1,-1,-1,-1,-1],"loss_changes":[1.8128164E1,1.5598198E1,2.0718899E1,1.2124772E1,7.419861E0,1.7580284E1,1.8606169E1,3.901709E0,2.6145964E0,6.6713266E0,5.372267E0,2.0456331E1,1.078257E1,1.033609E1,1.4515856E1,0E0,0E0,0E0,0E0,0E0,0E0,0E0,0E0,0E0,0E0,0E0,0E0,0E0,0E0,0E0,0E0],"parents":[2147483647,0,0,1,1,2,2,3,3,4,4,5,5,6,6,7,7,8,8,9,9,10,10,11,11,12,12,13,13,14,14],"right_children":[2,4,6,8,10,12,14,16,18,20,22,24,26,28,30,-1,-1,-1,-1,-1,-1,-1,-1,-1,-1,-1,-1,-1,-1,-1,-1],"split_conditions":[7.277065E-2,1.4955622E-2,3.186932E-2,5.960851E-3,8.3752945E-2,7.325912E-2,9.348307E-3,7.083739E-2,1.7098505E-2,6.0944498E-2,4.1484024E-2,5.820079E-2,3.5348345E-2,5.320374E-3,1.3603004E-2,-8.5252926E-2,1.8891778E-2,1.2998393E-1,-1.5060647E-2,9.61874E-2,2.029381E-2,-4.223367E-2,1.3477562E-1,-1.2874739E-2,7.448878E-2,1.4009695E-1,-4.8245605E-2,6.752124E-2,-9.318866E-4,3.9751448E-2,-1.9864684E-2],"split_indices":[57,20,15,23,40,34,26,40,61,57,9,30,35,10,50,0,0,0,0,0,0,0,0,0,0,0,0,0,0,0,0],"split_type":[0,0,0,0,0,0,0,0,0,0,0,0,0,0,0,0,0,0,0,0,0,0,0,0,0,0,0,0,0,0,0],"sum_hessian":[8.106759E2,9.622304E1,7.144529E2,2.4705574E1,7.151746E1,4.0767938E2,3.0677353E2,1.9328238E1,5.377337E0,5.3286217E1,1.8231247E1,2.4933893E2,1.5834044E2,1.088352E2,1.9793832E2,1.5107505E1,4.2207317E0,3.9763308E0,1.4010061E0,1.6410978E1,3.6875237E1,1.4410453E0,1.6790201E1,2.1983382E2,2.9505116E1,2.1581316E0,1.5618231E2,7.831672E1,3.0518476E1,5.6221577E1,1.4171675E2],"tree_param":{"num_deleted":"0","num_feature":"64","num_nodes":"31","size_leaf_vector":"1"}},{"base_weights":[1.1263542E-2,-8.875085E-2,2.625283E-1,-2.6364666E-1,6.787049E-2,5.820552E-1,3.3423763E-2,-3.8364893E-1,2.33687E-1,5.0227517E-1,-6.096323E-2,7.082874E-1,-3.975174E-1,-4.3764743E-1,2.8373286E-1,8.333824E-3,-5.2515812E-2,9.37634E-2,-9.329255E-3,3.0319528E-3,7.911831E-2,-1.9474845E-2,6.1530173E-2,1.9560577E-1,6.192261E-2,-6.897368E-2,6.909253E-2,1.5268176E-2,-7.259144E-2,7.06351E-2,-1.6956586E-2],"categories":[],"categories_nodes":[],"categories_segments":[],"categories_sizes":[],"default_left":[0,0,0,0,0,0,0,0,0,0,0,0,0,0,0,0,0,0,0,0,0,0,0,0,0,0,0,0,0,0,0],"id":42,"left_children":[1,3,5,7,9,11,13,15,17,19,21,23,25,27,29,-1,-1,-1,-1,-1,-1,-1,-1,-1,-1,-1,-1,-1,-1,-1,-1],"loss_changes":[2.0098827E1,1.5690819E1,1.6649418E1,1.6234379E1,1.6968533E1,1.2031792E1,1.5886328E1,1.4470333E1,1.2334324E1,9.429937E0,2.1319012E1,8.183235E0,4.1304975E0,8.070976E0,1.6958733E1,0E0,0E0,0E0,0E0,0E0,0E0,0E0,0E0,0E0,0E0,0E0,0E0,0E0,0E0,0E0,0E0],"parents":[2147483647,0,0,1,1,2,2,3,3,4,4,5,5,6,6,7,7,8,8,9,9,10,10,11,11,12,12,13,13,14,14],"right_children":[2,4,6,8,10,12,14,16,18,20,22,24,26,28,30,-1,-1,-1,-1,-1,-1,-1,-1,-1,-1,-1,-1,-1,-1,-1,-1],"split_conditions":[1.1053538E-2,2.0140288E-2,8.403933E-2,5.7416398E-2,8.074085E-2,1.4192013E-1,2.85704E-2,7.624997E-2,1.0381052E-1,7.4845403E-3,2.4265315E-2,4.9228347E-6,5.2863922E-2,3.7248127E-2,4.1239318E-2,8.333824E-3,-5.2515812E-2,9.37634E-2,-9.329255E-3,3.0319528E-3,7.911831E-2,-1.9474845E-2,6.1530173E-2,1.9560577E-1,6.192261E-2,-6.897368E-2,6.909253E-2,1.5268176E-2,-7.259144E-2,7.06351E-2,-1.6956586E-2],"split_indices":[12,43,36,30,5,57,20,57,57,28,62,27,15,41,56,0,0,0,0,0,0,0,0,0,0,0,0,0,0,0,0],"split_type":[0,0,0,0,0,0,0,0,0,0,0,0,0,0,0,0,0,0,0,0,0,0,0,0,0,0,0,0,0,0,0],"sum_hessian":[7.97864E2,5.711629E2,2.2670108E2,2.695163E2,3.016466E2,9.402541E1,1.3267567E2,2.173099E2,5.2206398E1,6.8334854E1,2.3331177E2,8.353735E1,1.0488067E1,4.5776947E1,8.689872E1,5.0632214E1,1.6667769E2,1.5965996E1,3.6240402E1,2.6367027E1,4.196783E1,1.9537318E2,3.7938572E1,4.168778E0,7.9368576E1,8.557029E0,1.9310379E0,1.5173712E1,3.0603237E1,4.468235E1,4.221637E1],"tree_param":{"num_deleted":"0","num_feature":"64","num_nodes":"31","size_leaf_vector":"1"}},{"base_weights":[1.00942E-3,-7.224101E-2,2.8060162E-1,-1.5755194E-1,2.4689731E-1,7.80887E-1,5.1158108E-2,8.528279E-1,-1.9464625E-1,7.510755E-1,-9.703866E-2,3.7546816E-1,1.3202235E0,-1.1913502E-1,6.567842E-1,1.07137956E-1,-8.6656205E-2,-2.4607226E-2,4.8207987E-2,-9.783717E-3,1.11006E-1,-2.5772488E-2,8.2598075E-2,1.1446591E-1,7.6226294E-3,1.614415E-1,2.1009585E-2,8.3759636E-2,-2.4830632E-2,-6.990741E-2,8.330961E-2],"categories":[],"categories_nodes":[],"categories_segments":[],"categories_sizes":[],"default_left":[0,0,0,0,0,0,0,0,0,0,0,0,0,0,0,0,0,0,0,0,0,0,0,0,0,0,0,0,0,0,0],"id":43,"left_children":[1,3,5,7,9,11,13,15,17,19,21,23,25,27,29,-1,-1,-1,-1,-1,-1,-1,-1,-1,-1,-1,-1,-1,-1,-1,-1],"loss_changes":[1.6268005E1,1.7175879E1,1.888871E1,1.8803644E1,2.3162954E1,1.0826126E1,1.1848225E1,7.6157045E0,1.6840025E1,1.6599525E1,1.2084621E1,7.03817E0,6.7877502E0,1.1320831E1,6.6066723E0,0E0,0E0,0E0,0E0,0E0,0E0,0E0,0E0,0E0,0E0,0E0,0E0,0E0,0E0,0E0,0E0],"parents":[2147483647,0,0,1,1,2,2,3,3,4,4,5,5,6,6,7,7,8,8,9,9,10,10,11,11,12,12,13,13,14,14],"right_children":[2,4,6,8,10,12,14,16,18,20,22,24,26,28,30,-1,-1,-1,-1,-1,-1,-1,-1,-1,-1,-1,-1,-1,-1,-1,-1],"split_conditions":[1.2694215E-2,1.938334E-2,1.1104773E-1,1.4158331E-2,8.478358E-2,1.6946489E-3,3.232068E-2,1.403578E-1,5.399352E-3,2.0352708E-2,3.0597402E-2,7.893554E-3,6.415715E-2,7.075175E-2,2.9308371E-2,1.07137956E-1,-8.6656205E-2,-2.4607226E-2,4.8207987E-2,-9.783717E-3,1.11006E-1,-2.5772488E-2,8.2598075E-2,1.1446591E-1,7.6226294E-3,1.614415E-1,2.1009585E-2,8.3759636E-2,-2.4830632E-2,-6.990741E-2,8.330961E-2],"split_indices":[12,23,39,6,16,14,45,48,14,7,62,50,2,36,4,0,0,0,0,0,0,0,0,0,0,0,0,0,0,0,0],"split_type":[0,0,0,0,0,0,0,0,0,0,0,0,0,0,0,0,0,0,0,0,0,0,0,0,0,0,0,0,0,0,0],"sum_hessian":[7.9233673E2,6.284346E2,1.6390211E2,4.962777E2,1.3215689E2,5.0778904E1,1.1312321E2,1.679597E1,4.7948172E2,5.311357E1,7.904332E1,2.9956663E1,2.082224E1,8.892273E1,2.4200476E1,1.5236184E1,1.5597874E0,4.462096E2,3.3272133E1,1.6001442E1,3.711213E1,6.7937096E1,1.1106225E1,7.5988593E0,2.2357803E1,1.610108E1,4.721161E0,9.925234E0,7.89975E1,2.44364E0,2.1756836E1],"tree_param":{"num_deleted":"0","num_feature":"64","num_nodes":"31","size_leaf_vector":"1"}},{"base_weights":[-2.600655E-2,-1.038131E-1,2.5730956E-1,1.1287468E-1,-2.551927E-1,5.9423447E-1,-1.4897604E-1,-4.8621707E-3,8.27707E-1,3.007886E-1,-3.253799E-1,3.667617E-1,1.0612382E0,3.2560518E-1,-4.525893E-1,-3.1878676E-2,1.7461196E-2,1.2423718E-1,1.3079862E-2,-6.213547E-3,1.01421855E-1,-3.9214153E-2,2.4908802E-2,6.1325092E-2,-4.656536E-2,1.21720396E-1,2.8204734E-2,-9.1812454E-2,5.076564E-2,-7.703429E-2,3.127698E-2],"categories":[],"categories_nodes":[],"categories_segments":[],"categories_sizes":[],"default_left":[0,0,0,0,0,0,0,0,0,0,0,0,0,0,0,0,0,0,0,0,0,0,0,0,0,0,0,0,0,0,0],"id":44,"left_children":[1,3,5,7,9,11,13,15,17,19,21,23,25,27,29,-1,-1,-1,-1,-1,-1,-1,-1,-1,-1,-1,-1,-1,-1,-1,-1],"loss_changes":[1.739929E1,2.0333448E1,2.3371449E1,2.1488827E1,1.4330463E1,9.509457E0,1.1372863E1,1.24605055E1,1.0271481E1,1.078278E1,1.2536274E1,1.3455772E1,3.301651E0,7.479964E0,1.1897226E1,0E0,0E0,0E0,0E0,0E0,0E0,0E0,0E0,0E0,0E0,0E0,0E0,0E0,0E0,0E0,0E0],"parents":[2147483647,0,0,1,1,2,2,3,3,4,4,5,5,6,6,7,7,8,8,9,9,10,10,11,11,12,12,13,13,14,14],"right_children":[2,4,6,8,10,12,14,16,18,20,22,24,26,28,30,-1,-1,-1,-1,-1,-1,-1,-1,-1,-1,-1,-1,-1,-1,-1,-1],"split_conditions":[1.659138E-2,3.7372902E-2,5.716358E-2,2.2492202E-2,3.9675664E-3,3.4365196E-2,1.0853044E-1,1.7592086E-2,2.2006324E-3,1.434068E-1,4.4352125E-2,2.277434E-1,2.2393125E-1,1.926093E-2,6.492494E-2,-3.1878676E-2,1.7461196E-2,1.2423718E-1,1.3079862E-2,-6.213547E-3,1.01421855E-1,-3.9214153E-2,2.4908802E-2,6.1325092E-2,-4.656536E-2,1.21720396E-1,2.8204734E-2,-9.1812454E-2,5.076564E-2,-7.703429E-2,3.127698E-2],"split_indices":[62,41,56,